digraph Tree {
node [shape=box, style="filled, rounded", color="black", fontname=helvetica] ;
edge [fontname=helvetica] ;
0 [label="OverallQual <= 0.75\nmse = 6306788585.349\nsamples = 1460\nvalue = 180921.196", fillcolor="#e5813934"] ;
1 [label="OverallQual <= 0.25\nmse = 2426928665.05\nsamples = 1231\nvalue = 157832.433", fillcolor="#e581392c"] ;
0 -> 1 [labeldistance=2.5, labelangle=45, headlabel="True"] ;
2 [label="GrLivArea <= -0.132\nmse = 1411538921.037\nsamples = 912\nvalue = 140383.976", fillcolor="#e5813925"] ;
1 -> 2 ;
3 [label="TotalBsmtSF <= 0.032\nmse = 837746927.031\nsamples = 564\nvalue = 124907.778", fillcolor="#e5813920"] ;
2 -> 3 ;
4 [label="OverallQual <= -0.75\nmse = 641983560.06\nsamples = 376\nvalue = 113919.918", fillcolor="#e581391c"] ;
3 -> 4 ;
5 [label="GrLivArea <= -1.014\nmse = 606151582.989\nsamples = 105\nvalue = 94173.962", fillcolor="#e5813915"] ;
4 -> 5 ;
6 [label="OverallQual <= -1.75\nmse = 390252613.514\nsamples = 22\nvalue = 70791.409", fillcolor="#e581390d"] ;
5 -> 6 ;
7 [label="YearBuilt <= -0.696\nmse = 130749097.688\nsamples = 4\nvalue = 48652.75", fillcolor="#e5813905"] ;
6 -> 7 ;
8 [label="mse = 0.0\nsamples = 2\nvalue = 60000.0", fillcolor="#e5813909"] ;
7 -> 8 ;
9 [label="GarageCars <= -1.5\nmse = 3978030.25\nsamples = 2\nvalue = 37305.5", fillcolor="#e5813901"] ;
7 -> 9 ;
10 [label="mse = 0.0\nsamples = 1\nvalue = 39300.0", fillcolor="#e5813902"] ;
9 -> 10 ;
11 [label="mse = 0.0\nsamples = 1\nvalue = 35311.0", fillcolor="#e5813900"] ;
9 -> 11 ;
12 [label="YearBuilt <= -0.772\nmse = 314800987.654\nsamples = 18\nvalue = 75711.111", fillcolor="#e581390e"] ;
6 -> 12 ;
13 [label="TotalBsmtSF <= -0.66\nmse = 292322448.98\nsamples = 7\nvalue = 65042.857", fillcolor="#e581390b"] ;
12 -> 13 ;
14 [label="ExterQual_Gd <= 0.5\nmse = 142765600.0\nsamples = 5\nvalue = 73080.0", fillcolor="#e581390e"] ;
13 -> 14 ;
15 [label="YearRemodAdd <= -1.149\nmse = 39592500.0\nsamples = 4\nvalue = 78350.0", fillcolor="#e581390f"] ;
14 -> 15 ;
16 [label="mse = 0.0\nsamples = 1\nvalue = 68500.0", fillcolor="#e581390c"] ;
15 -> 16 ;
17 [label="1stFlrSF <= -0.807\nmse = 9668888.889\nsamples = 3\nvalue = 81633.333", fillcolor="#e5813911"] ;
15 -> 17 ;
18 [label="mse = 0.0\nsamples = 1\nvalue = 86000.0", fillcolor="#e5813912"] ;
17 -> 18 ;
19 [label="BsmtExposure_Mn <= 0.5\nmse = 202500.0\nsamples = 2\nvalue = 79450.0", fillcolor="#e5813910"] ;
17 -> 19 ;
20 [label="mse = 0.0\nsamples = 1\nvalue = 79000.0", fillcolor="#e5813910"] ;
19 -> 20 ;
21 [label="mse = 0.0\nsamples = 1\nvalue = 79900.0", fillcolor="#e5813910"] ;
19 -> 21 ;
22 [label="mse = 0.0\nsamples = 1\nvalue = 52000.0", fillcolor="#e5813906"] ;
14 -> 22 ;
23 [label="TotRmsAbvGrd <= -0.75\nmse = 101002500.0\nsamples = 2\nvalue = 44950.0", fillcolor="#e5813904"] ;
13 -> 23 ;
24 [label="mse = 0.0\nsamples = 1\nvalue = 34900.0", fillcolor="#e5813900"] ;
23 -> 24 ;
25 [label="mse = 0.0\nsamples = 1\nvalue = 55000.0", fillcolor="#e5813907"] ;
23 -> 25 ;
26 [label="GrLivArea <= -1.076\nmse = 210590909.091\nsamples = 11\nvalue = 82500.0", fillcolor="#e5813911"] ;
12 -> 26 ;
27 [label="TotalBsmtSF <= -0.615\nmse = 197962500.0\nsamples = 10\nvalue = 80750.0", fillcolor="#e5813910"] ;
26 -> 27 ;
28 [label="TotalBsmtSF <= -0.678\nmse = 134484375.0\nsamples = 8\nvalue = 84375.0", fillcolor="#e5813912"] ;
27 -> 28 ;
29 [label="OverallQual <= -1.25\nmse = 19918367.347\nsamples = 7\nvalue = 80285.714", fillcolor="#e5813910"] ;
28 -> 29 ;
30 [label="mse = 0.0\nsamples = 1\nvalue = 72500.0", fillcolor="#e581390d"] ;
29 -> 30 ;
31 [label="YearBuilt <= -0.043\nmse = 11451388.889\nsamples = 6\nvalue = 81583.333", fillcolor="#e5813911"] ;
29 -> 31 ;
32 [label="YearRemodAdd <= -0.216\nmse = 5062500.0\nsamples = 4\nvalue = 83250.0", fillcolor="#e5813911"] ;
31 -> 32 ;
33 [label="GarageCars <= -1.5\nmse = 3388888.889\nsamples = 3\nvalue = 82333.333", fillcolor="#e5813911"] ;
32 -> 33 ;
34 [label="TotalBsmtSF <= -0.928\nmse = 1000000.0\nsamples = 2\nvalue = 83500.0", fillcolor="#e5813911"] ;
33 -> 34 ;
35 [label="mse = 0.0\nsamples = 1\nvalue = 82500.0", fillcolor="#e5813911"] ;
34 -> 35 ;
36 [label="mse = 0.0\nsamples = 1\nvalue = 84500.0", fillcolor="#e5813912"] ;
34 -> 36 ;
37 [label="mse = 0.0\nsamples = 1\nvalue = 80000.0", fillcolor="#e5813910"] ;
33 -> 37 ;
38 [label="mse = 0.0\nsamples = 1\nvalue = 86000.0", fillcolor="#e5813912"] ;
32 -> 38 ;
39 [label="mse = 7562500.0\nsamples = 2\nvalue = 78250.0", fillcolor="#e581390f"] ;
31 -> 39 ;
40 [label="mse = 0.0\nsamples = 1\nvalue = 113000.0", fillcolor="#e581391c"] ;
28 -> 40 ;
41 [label="YearBuilt <= -0.652\nmse = 189062500.0\nsamples = 2\nvalue = 66250.0", fillcolor="#e581390b"] ;
27 -> 41 ;
42 [label="mse = 0.0\nsamples = 1\nvalue = 52500.0", fillcolor="#e5813906"] ;
41 -> 42 ;
43 [label="mse = 0.0\nsamples = 1\nvalue = 80000.0", fillcolor="#e5813910"] ;
41 -> 43 ;
44 [label="mse = 0.0\nsamples = 1\nvalue = 100000.0", fillcolor="#e5813917"] ;
26 -> 44 ;
45 [label="1stFlrSF <= -0.808\nmse = 480045238.888\nsamples = 83\nvalue = 100371.747", fillcolor="#e5813917"] ;
5 -> 45 ;
46 [label="YearBuilt <= -0.815\nmse = 370868888.889\nsamples = 9\nvalue = 70100.0", fillcolor="#e581390c"] ;
45 -> 46 ;
47 [label="BsmtExposure_None <= 0.5\nmse = 57980000.0\nsamples = 3\nvalue = 44300.0", fillcolor="#e5813903"] ;
46 -> 47 ;
48 [label="TotalBsmtSF <= -0.73\nmse = 1102500.0\nsamples = 2\nvalue = 38950.0", fillcolor="#e5813901"] ;
47 -> 48 ;
49 [label="mse = 0.0\nsamples = 1\nvalue = 37900.0", fillcolor="#e5813901"] ;
48 -> 49 ;
50 [label="mse = 0.0\nsamples = 1\nvalue = 40000.0", fillcolor="#e5813902"] ;
48 -> 50 ;
51 [label="mse = 0.0\nsamples = 1\nvalue = 55000.0", fillcolor="#e5813907"] ;
47 -> 51 ;
52 [label="1stFlrSF <= -1.082\nmse = 28083333.333\nsamples = 6\nvalue = 83000.0", fillcolor="#e5813911"] ;
46 -> 52 ;
53 [label="mse = 0.0\nsamples = 1\nvalue = 91000.0", fillcolor="#e5813914"] ;
52 -> 53 ;
54 [label="YearRemodAdd <= -0.608\nmse = 18340000.0\nsamples = 5\nvalue = 81400.0", fillcolor="#e5813910"] ;
52 -> 54 ;
55 [label="TotRmsAbvGrd <= -0.25\nmse = 21546875.0\nsamples = 4\nvalue = 80875.0", fillcolor="#e5813910"] ;
54 -> 55 ;
56 [label="BsmtExposure_No <= 0.5\nmse = 62500.0\nsamples = 2\nvalue = 80250.0", fillcolor="#e5813910"] ;
55 -> 56 ;
57 [label="mse = 0.0\nsamples = 1\nvalue = 80500.0", fillcolor="#e5813910"] ;
56 -> 57 ;
58 [label="mse = 0.0\nsamples = 1\nvalue = 80000.0", fillcolor="#e5813910"] ;
56 -> 58 ;
59 [label="mse = 42250000.0\nsamples = 2\nvalue = 81500.0", fillcolor="#e5813911"] ;
55 -> 59 ;
60 [label="mse = 0.0\nsamples = 1\nvalue = 83500.0", fillcolor="#e5813911"] ;
54 -> 60 ;
61 [label="OverallQual <= -1.25\nmse = 368317077.058\nsamples = 74\nvalue = 104053.446", fillcolor="#e5813918"] ;
45 -> 61 ;
62 [label="GrLivArea <= -0.834\nmse = 291667430.556\nsamples = 12\nvalue = 84658.333", fillcolor="#e5813912"] ;
61 -> 62 ;
63 [label="TotRmsAbvGrd <= -0.25\nmse = 76046875.0\nsamples = 4\nvalue = 66875.0", fillcolor="#e581390b"] ;
62 -> 63 ;
64 [label="GarageCars <= -1.5\nmse = 12722222.222\nsamples = 3\nvalue = 62166.667", fillcolor="#e581390a"] ;
63 -> 64 ;
65 [label="GrLivArea <= -0.896\nmse = 9000000.0\nsamples = 2\nvalue = 64000.0", fillcolor="#e581390a"] ;
64 -> 65 ;
66 [label="mse = 0.0\nsamples = 1\nvalue = 67000.0", fillcolor="#e581390b"] ;
65 -> 66 ;
67 [label="mse = 0.0\nsamples = 1\nvalue = 61000.0", fillcolor="#e5813909"] ;
65 -> 67 ;
68 [label="mse = 0.0\nsamples = 1\nvalue = 58500.0", fillcolor="#e5813908"] ;
64 -> 68 ;
69 [label="mse = 0.0\nsamples = 1\nvalue = 81000.0", fillcolor="#e5813910"] ;
63 -> 69 ;
70 [label="1stFlrSF <= -0.526\nmse = 162292500.0\nsamples = 8\nvalue = 93550.0", fillcolor="#e5813915"] ;
62 -> 70 ;
71 [label="YearRemodAdd <= -0.486\nmse = 56250000.0\nsamples = 2\nvalue = 112500.0", fillcolor="#e581391b"] ;
70 -> 71 ;
72 [label="mse = 0.0\nsamples = 1\nvalue = 105000.0", fillcolor="#e5813919"] ;
71 -> 72 ;
73 [label="mse = 0.0\nsamples = 1\nvalue = 120000.0", fillcolor="#e581391e"] ;
71 -> 73 ;
74 [label="YearRemodAdd <= -1.162\nmse = 38038888.889\nsamples = 6\nvalue = 87233.333", fillcolor="#e5813913"] ;
70 -> 74 ;
75 [label="YearBuilt <= -0.511\nmse = 5476875.0\nsamples = 4\nvalue = 91225.0", fillcolor="#e5813914"] ;
74 -> 75 ;
76 [label="FullBath <= -0.5\nmse = 3062500.0\nsamples = 2\nvalue = 89250.0", fillcolor="#e5813913"] ;
75 -> 76 ;
77 [label="mse = 0.0\nsamples = 1\nvalue = 91000.0", fillcolor="#e5813914"] ;
76 -> 77 ;
78 [label="mse = 0.0\nsamples = 1\nvalue = 87500.0", fillcolor="#e5813913"] ;
76 -> 78 ;
79 [label="mse = 90000.0\nsamples = 2\nvalue = 93200.0", fillcolor="#e5813915"] ;
75 -> 79 ;
80 [label="BsmtExposure_None <= 0.5\nmse = 7562500.0\nsamples = 2\nvalue = 79250.0", fillcolor="#e5813910"] ;
74 -> 80 ;
81 [label="mse = 0.0\nsamples = 1\nvalue = 76500.0", fillcolor="#e581390f"] ;
80 -> 81 ;
82 [label="mse = 0.0\nsamples = 1\nvalue = 82000.0", fillcolor="#e5813911"] ;
80 -> 82 ;
83 [label="TotalBsmtSF <= -0.873\nmse = 296253608.74\nsamples = 62\nvalue = 107807.339", fillcolor="#e581391a"] ;
61 -> 83 ;
84 [label="GrLivArea <= -0.74\nmse = 99742768.595\nsamples = 11\nvalue = 94486.364", fillcolor="#e5813915"] ;
83 -> 84 ;
85 [label="YearBuilt <= -0.467\nmse = 380000.0\nsamples = 3\nvalue = 84800.0", fillcolor="#e5813912"] ;
84 -> 85 ;
86 [label="GarageCars <= -1.5\nmse = 90000.0\nsamples = 2\nvalue = 85200.0", fillcolor="#e5813912"] ;
85 -> 86 ;
87 [label="mse = 0.0\nsamples = 1\nvalue = 85500.0", fillcolor="#e5813912"] ;
86 -> 87 ;
88 [label="mse = 0.0\nsamples = 1\nvalue = 84900.0", fillcolor="#e5813912"] ;
86 -> 88 ;
89 [label="mse = 0.0\nsamples = 1\nvalue = 84000.0", fillcolor="#e5813911"] ;
85 -> 89 ;
90 [label="TotRmsAbvGrd <= -0.25\nmse = 88624960.938\nsamples = 8\nvalue = 98118.75", fillcolor="#e5813916"] ;
84 -> 90 ;
91 [label="TotRmsAbvGrd <= -0.75\nmse = 902500.0\nsamples = 2\nvalue = 108950.0", fillcolor="#e581391a"] ;
90 -> 91 ;
92 [label="mse = 0.0\nsamples = 1\nvalue = 109900.0", fillcolor="#e581391b"] ;
91 -> 92 ;
93 [label="mse = 0.0\nsamples = 1\nvalue = 108000.0", fillcolor="#e581391a"] ;
91 -> 93 ;
94 [label="GrLivArea <= -0.426\nmse = 65725347.222\nsamples = 6\nvalue = 94508.333", fillcolor="#e5813915"] ;
90 -> 94 ;
95 [label="GrLivArea <= -0.569\nmse = 16000000.0\nsamples = 2\nvalue = 86000.0", fillcolor="#e5813912"] ;
94 -> 95 ;
96 [label="mse = 0.0\nsamples = 1\nvalue = 90000.0", fillcolor="#e5813914"] ;
95 -> 96 ;
97 [label="mse = 0.0\nsamples = 1\nvalue = 82000.0", fillcolor="#e5813911"] ;
95 -> 97 ;
98 [label="YearBuilt <= -0.185\nmse = 36294218.75\nsamples = 4\nvalue = 98762.5", fillcolor="#e5813917"] ;
94 -> 98 ;
99 [label="YearRemodAdd <= -0.351\nmse = 4950625.0\nsamples = 2\nvalue = 104025.0", fillcolor="#e5813918"] ;
98 -> 99 ;
100 [label="mse = 0.0\nsamples = 1\nvalue = 101800.0", fillcolor="#e5813918"] ;
99 -> 100 ;
101 [label="mse = 0.0\nsamples = 1\nvalue = 106250.0", fillcolor="#e5813919"] ;
99 -> 101 ;
102 [label="YearBuilt <= -0.098\nmse = 12250000.0\nsamples = 2\nvalue = 93500.0", fillcolor="#e5813915"] ;
98 -> 102 ;
103 [label="mse = 0.0\nsamples = 1\nvalue = 90000.0", fillcolor="#e5813914"] ;
102 -> 103 ;
104 [label="mse = 0.0\nsamples = 1\nvalue = 97000.0", fillcolor="#e5813916"] ;
102 -> 104 ;
105 [label="FullBath <= -0.5\nmse = 292110120.956\nsamples = 51\nvalue = 110680.49", fillcolor="#e581391b"] ;
83 -> 105 ;
106 [label="1stFlrSF <= -0.742\nmse = 254446514.81\nsamples = 50\nvalue = 111604.1", fillcolor="#e581391b"] ;
105 -> 106 ;
107 [label="mse = 0.0\nsamples = 1\nvalue = 68400.0", fillcolor="#e581390c"] ;
106 -> 107 ;
108 [label="GrLivArea <= -0.929\nmse = 220768116.803\nsamples = 49\nvalue = 112485.816", fillcolor="#e581391b"] ;
106 -> 108 ;
109 [label="YearBuilt <= 0.076\nmse = 288972222.222\nsamples = 6\nvalue = 98666.667", fillcolor="#e5813917"] ;
108 -> 109 ;
110 [label="YearRemodAdd <= -1.081\nmse = 118600000.0\nsamples = 5\nvalue = 92500.0", fillcolor="#e5813914"] ;
109 -> 110 ;
111 [label="1stFlrSF <= -0.463\nmse = 62500.0\nsamples = 2\nvalue = 82250.0", fillcolor="#e5813911"] ;
110 -> 111 ;
112 [label="mse = 0.0\nsamples = 1\nvalue = 82000.0", fillcolor="#e5813911"] ;
111 -> 112 ;
113 [label="mse = 0.0\nsamples = 1\nvalue = 82500.0", fillcolor="#e5813911"] ;
111 -> 113 ;
114 [label="TotRmsAbvGrd <= -0.75\nmse = 80888888.889\nsamples = 3\nvalue = 99333.333", fillcolor="#e5813917"] ;
110 -> 114 ;
115 [label="BsmtExposure_No <= 0.5\nmse = 25000000.0\nsamples = 2\nvalue = 105000.0", fillcolor="#e5813919"] ;
114 -> 115 ;
116 [label="mse = 0.0\nsamples = 1\nvalue = 100000.0", fillcolor="#e5813917"] ;
115 -> 116 ;
117 [label="mse = 0.0\nsamples = 1\nvalue = 110000.0", fillcolor="#e581391b"] ;
115 -> 117 ;
118 [label="mse = 0.0\nsamples = 1\nvalue = 88000.0", fillcolor="#e5813913"] ;
114 -> 118 ;
119 [label="mse = 0.0\nsamples = 1\nvalue = 129500.0", fillcolor="#e5813921"] ;
109 -> 119 ;
120 [label="FullBath <= -1.5\nmse = 180886280.67\nsamples = 43\nvalue = 114414.07", fillcolor="#e581391c"] ;
108 -> 120 ;
121 [label="mse = 0.0\nsamples = 1\nvalue = 145000.0", fillcolor="#e5813927"] ;
120 -> 121 ;
122 [label="1stFlrSF <= -0.633\nmse = 162388979.806\nsamples = 42\nvalue = 113685.833", fillcolor="#e581391c"] ;
120 -> 122 ;
123 [label="YearBuilt <= -0.663\nmse = 16166666.667\nsamples = 3\nvalue = 129500.0", fillcolor="#e5813921"] ;
122 -> 123 ;
124 [label="GrLivArea <= -0.186\nmse = 1562500.0\nsamples = 2\nvalue = 126750.0", fillcolor="#e5813921"] ;
123 -> 124 ;
125 [label="mse = 0.0\nsamples = 1\nvalue = 128000.0", fillcolor="#e5813921"] ;
124 -> 125 ;
126 [label="mse = 0.0\nsamples = 1\nvalue = 125500.0", fillcolor="#e5813920"] ;
124 -> 126 ;
127 [label="mse = 0.0\nsamples = 1\nvalue = 135000.0", fillcolor="#e5813923"] ;
123 -> 127 ;
128 [label="YearBuilt <= -0.663\nmse = 152919511.922\nsamples = 39\nvalue = 112469.359", fillcolor="#e581391b"] ;
122 -> 128 ;
129 [label="1stFlrSF <= 0.135\nmse = 132382511.372\nsamples = 14\nvalue = 107267.643", fillcolor="#e581391a"] ;
128 -> 129 ;
130 [label="YearRemodAdd <= 0.311\nmse = 66850184.686\nsamples = 13\nvalue = 104942.077", fillcolor="#e5813919"] ;
129 -> 130 ;
131 [label="SaleCondition_Alloca <= 0.5\nmse = 34267098.576\nsamples = 12\nvalue = 103228.917", fillcolor="#e5813918"] ;
130 -> 131 ;
132 [label="1stFlrSF <= -0.575\nmse = 18610692.231\nsamples = 11\nvalue = 104479.636", fillcolor="#e5813919"] ;
131 -> 132 ;
133 [label="1stFlrSF <= -0.599\nmse = 3062500.0\nsamples = 2\nvalue = 98250.0", fillcolor="#e5813916"] ;
132 -> 133 ;
134 [label="mse = 0.0\nsamples = 1\nvalue = 100000.0", fillcolor="#e5813917"] ;
133 -> 134 ;
135 [label="mse = 0.0\nsamples = 1\nvalue = 96500.0", fillcolor="#e5813916"] ;
133 -> 135 ;
136 [label="YearBuilt <= -1.478\nmse = 11525301.333\nsamples = 9\nvalue = 105864.0", fillcolor="#e5813919"] ;
132 -> 136 ;
137 [label="BsmtExposure_Mn <= 0.5\nmse = 1926544.0\nsamples = 2\nvalue = 101388.0", fillcolor="#e5813918"] ;
136 -> 137 ;
138 [label="mse = 0.0\nsamples = 1\nvalue = 100000.0", fillcolor="#e5813917"] ;
137 -> 138 ;
139 [label="mse = 0.0\nsamples = 1\nvalue = 102776.0", fillcolor="#e5813918"] ;
137 -> 139 ;
140 [label="YearBuilt <= -1.261\nmse = 6908163.265\nsamples = 7\nvalue = 107142.857", fillcolor="#e581391a"] ;
136 -> 140 ;
141 [label="mse = 0.0\nsamples = 1\nvalue = 112000.0", fillcolor="#e581391b"] ;
140 -> 141 ;
142 [label="GarageCars <= -0.5\nmse = 3472222.222\nsamples = 6\nvalue = 106333.333", fillcolor="#e5813919"] ;
140 -> 142 ;
143 [label="ExterQual_Fa <= 0.5\nmse = 1500000.0\nsamples = 5\nvalue = 107000.0", fillcolor="#e581391a"] ;
142 -> 143 ;
144 [label="YearBuilt <= -1.098\nmse = 625000.0\nsamples = 4\nvalue = 107500.0", fillcolor="#e581391a"] ;
143 -> 144 ;
145 [label="TotalBsmtSF <= -0.384\nmse = 62500.0\nsamples = 2\nvalue = 108250.0", fillcolor="#e581391a"] ;
144 -> 145 ;
146 [label="mse = 0.0\nsamples = 1\nvalue = 108000.0", fillcolor="#e581391a"] ;
145 -> 146 ;
147 [label="mse = 0.0\nsamples = 1\nvalue = 108500.0", fillcolor="#e581391a"] ;
145 -> 147 ;
148 [label="SaleCondition_Family <= 0.5\nmse = 62500.0\nsamples = 2\nvalue = 106750.0", fillcolor="#e5813919"] ;
144 -> 148 ;
149 [label="mse = 0.0\nsamples = 1\nvalue = 106500.0", fillcolor="#e5813919"] ;
148 -> 149 ;
150 [label="mse = 0.0\nsamples = 1\nvalue = 107000.0", fillcolor="#e581391a"] ;
148 -> 150 ;
151 [label="mse = 0.0\nsamples = 1\nvalue = 105000.0", fillcolor="#e5813919"] ;
143 -> 151 ;
152 [label="mse = 0.0\nsamples = 1\nvalue = 103000.0", fillcolor="#e5813918"] ;
142 -> 152 ;
153 [label="mse = 0.0\nsamples = 1\nvalue = 89471.0", fillcolor="#e5813913"] ;
131 -> 153 ;
154 [label="mse = 0.0\nsamples = 1\nvalue = 125500.0", fillcolor="#e5813920"] ;
130 -> 154 ;
155 [label="mse = 0.0\nsamples = 1\nvalue = 137500.0", fillcolor="#e5813924"] ;
129 -> 155 ;
156 [label="ExterQual_TA <= 0.5\nmse = 140782493.978\nsamples = 25\nvalue = 115382.32", fillcolor="#e581391d"] ;
128 -> 156 ;
157 [label="mse = 0.0\nsamples = 1\nvalue = 93000.0", fillcolor="#e5813915"] ;
156 -> 157 ;
158 [label="TotalBsmtSF <= -0.127\nmse = 124905017.66\nsamples = 24\nvalue = 116314.917", fillcolor="#e581391d"] ;
156 -> 158 ;
159 [label="1stFlrSF <= -0.412\nmse = 100748775.17\nsamples = 17\nvalue = 114441.647", fillcolor="#e581391c"] ;
158 -> 159 ;
160 [label="YearRemodAdd <= -0.905\nmse = 111025900.0\nsamples = 10\nvalue = 119040.0", fillcolor="#e581391e"] ;
159 -> 160 ;
161 [label="YearRemodAdd <= -1.176\nmse = 94090000.0\nsamples = 2\nvalue = 131300.0", fillcolor="#e5813922"] ;
160 -> 161 ;
162 [label="mse = 0.0\nsamples = 1\nvalue = 121600.0", fillcolor="#e581391f"] ;
161 -> 162 ;
163 [label="mse = 0.0\nsamples = 1\nvalue = 141000.0", fillcolor="#e5813926"] ;
161 -> 163 ;
164 [label="TotRmsAbvGrd <= -0.75\nmse = 68288750.0\nsamples = 8\nvalue = 115975.0", fillcolor="#e581391d"] ;
160 -> 164 ;
165 [label="mse = 0.0\nsamples = 1\nvalue = 97000.0", fillcolor="#e5813916"] ;
164 -> 165 ;
166 [label="SaleType_WD <= 0.5\nmse = 19260510.204\nsamples = 7\nvalue = 118685.714", fillcolor="#e581391e"] ;
164 -> 166 ;
167 [label="YearBuilt <= -0.033\nmse = 4245000.0\nsamples = 3\nvalue = 114100.0", fillcolor="#e581391c"] ;
166 -> 167 ;
168 [label="YearRemodAdd <= -0.635\nmse = 275625.0\nsamples = 2\nvalue = 115525.0", fillcolor="#e581391d"] ;
167 -> 168 ;
169 [label="mse = 0.0\nsamples = 1\nvalue = 116050.0", fillcolor="#e581391d"] ;
168 -> 169 ;
170 [label="mse = 0.0\nsamples = 1\nvalue = 115000.0", fillcolor="#e581391c"] ;
168 -> 170 ;
171 [label="mse = 0.0\nsamples = 1\nvalue = 111250.0", fillcolor="#e581391b"] ;
167 -> 171 ;
172 [label="TotalBsmtSF <= -0.26\nmse = 2921875.0\nsamples = 4\nvalue = 122125.0", fillcolor="#e581391f"] ;
166 -> 172 ;
173 [label="mse = 0.0\nsamples = 1\nvalue = 123000.0", fillcolor="#e581391f"] ;
172 -> 173 ;
174 [label="YearRemodAdd <= -0.635\nmse = 3555555.556\nsamples = 3\nvalue = 121833.333", fillcolor="#e581391f"] ;
172 -> 174 ;
175 [label="mse = 4000000.0\nsamples = 2\nvalue = 122500.0", fillcolor="#e581391f"] ;
174 -> 175 ;
176 [label="mse = 0.0\nsamples = 1\nvalue = 120500.0", fillcolor="#e581391e"] ;
174 -> 176 ;
177 [label="1stFlrSF <= 0.006\nmse = 12707485.388\nsamples = 7\nvalue = 107872.571", fillcolor="#e581391a"] ;
159 -> 177 ;
178 [label="1stFlrSF <= -0.391\nmse = 8119575.556\nsamples = 6\nvalue = 108851.333", fillcolor="#e581391a"] ;
177 -> 178 ;
179 [label="mse = 0.0\nsamples = 1\nvalue = 103200.0", fillcolor="#e5813918"] ;
178 -> 179 ;
180 [label="YearRemodAdd <= -1.014\nmse = 2078474.24\nsamples = 5\nvalue = 109981.6", fillcolor="#e581391b"] ;
178 -> 180 ;
181 [label="1stFlrSF <= -0.326\nmse = 666666.667\nsamples = 3\nvalue = 111000.0", fillcolor="#e581391b"] ;
180 -> 181 ;
182 [label="mse = 0.0\nsamples = 1\nvalue = 110000.0", fillcolor="#e581391b"] ;
181 -> 182 ;
183 [label="1stFlrSF <= -0.261\nmse = 250000.0\nsamples = 2\nvalue = 111500.0", fillcolor="#e581391b"] ;
181 -> 183 ;
184 [label="mse = 0.0\nsamples = 1\nvalue = 111000.0", fillcolor="#e581391b"] ;
183 -> 184 ;
185 [label="mse = 0.0\nsamples = 1\nvalue = 112000.0", fillcolor="#e581391b"] ;
183 -> 185 ;
186 [label="TotalBsmtSF <= -0.174\nmse = 306916.0\nsamples = 2\nvalue = 108454.0", fillcolor="#e581391a"] ;
180 -> 186 ;
187 [label="mse = 0.0\nsamples = 1\nvalue = 107900.0", fillcolor="#e581391a"] ;
186 -> 187 ;
188 [label="mse = 0.0\nsamples = 1\nvalue = 109008.0", fillcolor="#e581391a"] ;
186 -> 188 ;
189 [label="mse = 0.0\nsamples = 1\nvalue = 102000.0", fillcolor="#e5813918"] ;
177 -> 189 ;
190 [label="TotalBsmtSF <= -0.071\nmse = 154351224.49\nsamples = 7\nvalue = 120864.286", fillcolor="#e581391e"] ;
158 -> 190 ;
191 [label="YearRemodAdd <= -1.054\nmse = 47311666.667\nsamples = 3\nvalue = 127900.0", fillcolor="#e5813921"] ;
190 -> 191 ;
192 [label="mse = 0.0\nsamples = 1\nvalue = 119000.0", fillcolor="#e581391e"] ;
191 -> 192 ;
193 [label="YearRemodAdd <= -0.986\nmse = 11560000.0\nsamples = 2\nvalue = 132350.0", fillcolor="#e5813923"] ;
191 -> 193 ;
194 [label="mse = 0.0\nsamples = 1\nvalue = 135750.0", fillcolor="#e5813924"] ;
193 -> 194 ;
195 [label="mse = 0.0\nsamples = 1\nvalue = 128950.0", fillcolor="#e5813921"] ;
193 -> 195 ;
196 [label="YearBuilt <= -0.12\nmse = 169660468.75\nsamples = 4\nvalue = 115587.5", fillcolor="#e581391d"] ;
190 -> 196 ;
197 [label="TotalBsmtSF <= -0.018\nmse = 102515625.0\nsamples = 2\nvalue = 104875.0", fillcolor="#e5813919"] ;
196 -> 197 ;
198 [label="mse = 0.0\nsamples = 1\nvalue = 94750.0", fillcolor="#e5813915"] ;
197 -> 198 ;
199 [label="mse = 0.0\nsamples = 1\nvalue = 115000.0", fillcolor="#e581391c"] ;
197 -> 199 ;
200 [label="YearRemodAdd <= -0.311\nmse = 7290000.0\nsamples = 2\nvalue = 126300.0", fillcolor="#e5813920"] ;
196 -> 200 ;
201 [label="mse = 0.0\nsamples = 1\nvalue = 129000.0", fillcolor="#e5813921"] ;
200 -> 201 ;
202 [label="mse = 0.0\nsamples = 1\nvalue = 123600.0", fillcolor="#e581391f"] ;
200 -> 202 ;
203 [label="mse = 0.0\nsamples = 1\nvalue = 64500.0", fillcolor="#e581390a"] ;
105 -> 203 ;
204 [label="GarageCars <= -0.5\nmse = 446265061.759\nsamples = 271\nvalue = 121570.565", fillcolor="#e581391f"] ;
4 -> 204 ;
205 [label="YearBuilt <= -0.815\nmse = 359476403.048\nsamples = 170\nvalue = 114953.747", fillcolor="#e581391c"] ;
204 -> 205 ;
206 [label="GrLivArea <= -0.332\nmse = 357940522.618\nsamples = 44\nvalue = 103239.864", fillcolor="#e5813918"] ;
205 -> 206 ;
207 [label="YearRemodAdd <= 0.135\nmse = 234084586.938\nsamples = 34\nvalue = 97177.941", fillcolor="#e5813916"] ;
206 -> 207 ;
208 [label="SaleCondition_Normal <= 0.5\nmse = 174028422.497\nsamples = 27\nvalue = 92951.852", fillcolor="#e5813915"] ;
207 -> 208 ;
209 [label="TotalBsmtSF <= -0.12\nmse = 45834722.222\nsamples = 6\nvalue = 80816.667", fillcolor="#e5813910"] ;
208 -> 209 ;
210 [label="GarageCars <= -1.5\nmse = 9185600.0\nsamples = 5\nvalue = 83580.0", fillcolor="#e5813911"] ;
209 -> 210 ;
211 [label="1stFlrSF <= -0.42\nmse = 302500.0\nsamples = 2\nvalue = 80450.0", fillcolor="#e5813910"] ;
210 -> 211 ;
212 [label="mse = 0.0\nsamples = 1\nvalue = 81000.0", fillcolor="#e5813910"] ;
211 -> 212 ;
213 [label="mse = 0.0\nsamples = 1\nvalue = 79900.0", fillcolor="#e5813910"] ;
211 -> 213 ;
214 [label="TotalBsmtSF <= -0.83\nmse = 4222222.222\nsamples = 3\nvalue = 85666.667", fillcolor="#e5813912"] ;
210 -> 214 ;
215 [label="mse = 0.0\nsamples = 1\nvalue = 83000.0", fillcolor="#e5813911"] ;
214 -> 215 ;
216 [label="GrLivArea <= -0.944\nmse = 1000000.0\nsamples = 2\nvalue = 87000.0", fillcolor="#e5813912"] ;
214 -> 216 ;
217 [label="mse = 0.0\nsamples = 1\nvalue = 86000.0", fillcolor="#e5813912"] ;
216 -> 217 ;
218 [label="mse = 0.0\nsamples = 1\nvalue = 88000.0", fillcolor="#e5813913"] ;
216 -> 218 ;
219 [label="mse = 0.0\nsamples = 1\nvalue = 67000.0", fillcolor="#e581390b"] ;
209 -> 219 ;
220 [label="1stFlrSF <= -0.307\nmse = 156558684.807\nsamples = 21\nvalue = 96419.048", fillcolor="#e5813916"] ;
208 -> 220 ;
221 [label="1stFlrSF <= -0.604\nmse = 85081835.938\nsamples = 16\nvalue = 91493.75", fillcolor="#e5813914"] ;
220 -> 221 ;
222 [label="YearRemodAdd <= -0.135\nmse = 64555555.556\nsamples = 6\nvalue = 85166.667", fillcolor="#e5813912"] ;
221 -> 222 ;
223 [label="GrLivArea <= -0.957\nmse = 17300000.0\nsamples = 5\nvalue = 82000.0", fillcolor="#e5813911"] ;
222 -> 223 ;
224 [label="YearBuilt <= -0.978\nmse = 5062500.0\nsamples = 2\nvalue = 86750.0", fillcolor="#e5813912"] ;
223 -> 224 ;
225 [label="mse = 0.0\nsamples = 1\nvalue = 89000.0", fillcolor="#e5813913"] ;
224 -> 225 ;
226 [label="mse = 0.0\nsamples = 1\nvalue = 84500.0", fillcolor="#e5813912"] ;
224 -> 226 ;
227 [label="BsmtExposure_Mn <= 0.5\nmse = 388888.889\nsamples = 3\nvalue = 78833.333", fillcolor="#e5813910"] ;
223 -> 227 ;
228 [label="GarageCars <= -1.5\nmse = 62500.0\nsamples = 2\nvalue = 79250.0", fillcolor="#e5813910"] ;
227 -> 228 ;
229 [label="mse = 0.0\nsamples = 1\nvalue = 79000.0", fillcolor="#e5813910"] ;
228 -> 229 ;
230 [label="mse = 0.0\nsamples = 1\nvalue = 79500.0", fillcolor="#e5813910"] ;
228 -> 230 ;
231 [label="mse = 0.0\nsamples = 1\nvalue = 78000.0", fillcolor="#e581390f"] ;
227 -> 231 ;
232 [label="mse = 0.0\nsamples = 1\nvalue = 101000.0", fillcolor="#e5813917"] ;
222 -> 232 ;
233 [label="GrLivArea <= -1.047\nmse = 58966900.0\nsamples = 10\nvalue = 95290.0", fillcolor="#e5813915"] ;
221 -> 233 ;
234 [label="mse = 0.0\nsamples = 1\nvalue = 109500.0", fillcolor="#e581391a"] ;
233 -> 234 ;
235 [label="YearBuilt <= -0.924\nmse = 40589876.543\nsamples = 9\nvalue = 93711.111", fillcolor="#e5813915"] ;
233 -> 235 ;
236 [label="YearBuilt <= -0.978\nmse = 27742500.0\nsamples = 8\nvalue = 92300.0", fillcolor="#e5813914"] ;
235 -> 236 ;
237 [label="YearBuilt <= -1.239\nmse = 27149600.0\nsamples = 5\nvalue = 94680.0", fillcolor="#e5813915"] ;
236 -> 237 ;
238 [label="YearRemodAdd <= -0.568\nmse = 20250000.0\nsamples = 2\nvalue = 89500.0", fillcolor="#e5813913"] ;
237 -> 238 ;
239 [label="mse = 0.0\nsamples = 1\nvalue = 85000.0", fillcolor="#e5813912"] ;
238 -> 239 ;
240 [label="mse = 0.0\nsamples = 1\nvalue = 94000.0", fillcolor="#e5813915"] ;
238 -> 240 ;
241 [label="YearBuilt <= -1.076\nmse = 1935555.556\nsamples = 3\nvalue = 98133.333", fillcolor="#e5813916"] ;
237 -> 241 ;
242 [label="mse = 0.0\nsamples = 1\nvalue = 99900.0", fillcolor="#e5813917"] ;
241 -> 242 ;
243 [label="1stFlrSF <= -0.512\nmse = 562500.0\nsamples = 2\nvalue = 97250.0", fillcolor="#e5813916"] ;
241 -> 243 ;
244 [label="mse = 0.0\nsamples = 1\nvalue = 96500.0", fillcolor="#e5813916"] ;
243 -> 244 ;
245 [label="mse = 0.0\nsamples = 1\nvalue = 98000.0", fillcolor="#e5813916"] ;
243 -> 245 ;
246 [label="BsmtExposure_No <= 0.5\nmse = 3555555.556\nsamples = 3\nvalue = 88333.333", fillcolor="#e5813913"] ;
236 -> 246 ;
247 [label="mse = 0.0\nsamples = 1\nvalue = 91000.0", fillcolor="#e5813914"] ;
246 -> 247 ;
248 [label="mse = 0.0\nsamples = 2\nvalue = 87000.0", fillcolor="#e5813912"] ;
246 -> 248 ;
249 [label="mse = 0.0\nsamples = 1\nvalue = 105000.0", fillcolor="#e5813919"] ;
235 -> 249 ;
250 [label="GrLivArea <= -0.765\nmse = 59249600.0\nsamples = 5\nvalue = 112180.0", fillcolor="#e581391b"] ;
220 -> 250 ;
251 [label="mse = 0.0\nsamples = 1\nvalue = 121000.0", fillcolor="#e581391e"] ;
250 -> 251 ;
252 [label="YearBuilt <= -0.989\nmse = 49751875.0\nsamples = 4\nvalue = 109975.0", fillcolor="#e581391b"] ;
250 -> 252 ;
253 [label="1stFlrSF <= -0.137\nmse = 21668888.889\nsamples = 3\nvalue = 106633.333", fillcolor="#e5813919"] ;
252 -> 253 ;
254 [label="1stFlrSF <= -0.235\nmse = 2102500.0\nsamples = 2\nvalue = 103450.0", fillcolor="#e5813918"] ;
253 -> 254 ;
255 [label="mse = 0.0\nsamples = 1\nvalue = 104900.0", fillcolor="#e5813919"] ;
254 -> 255 ;
256 [label="mse = 0.0\nsamples = 1\nvalue = 102000.0", fillcolor="#e5813918"] ;
254 -> 256 ;
257 [label="mse = 0.0\nsamples = 1\nvalue = 113000.0", fillcolor="#e581391c"] ;
253 -> 257 ;
258 [label="mse = 0.0\nsamples = 1\nvalue = 120000.0", fillcolor="#e581391e"] ;
252 -> 258 ;
259 [label="1stFlrSF <= -0.676\nmse = 131131326.531\nsamples = 7\nvalue = 113478.571", fillcolor="#e581391c"] ;
207 -> 259 ;
260 [label="mse = 0.0\nsamples = 1\nvalue = 90350.0", fillcolor="#e5813914"] ;
259 -> 260 ;
261 [label="YearRemodAdd <= 0.216\nmse = 48972222.222\nsamples = 6\nvalue = 117333.333", fillcolor="#e581391d"] ;
259 -> 261 ;
262 [label="mse = 0.0\nsamples = 1\nvalue = 130000.0", fillcolor="#e5813922"] ;
261 -> 262 ;
263 [label="TotalBsmtSF <= -0.352\nmse = 20260000.0\nsamples = 5\nvalue = 114800.0", fillcolor="#e581391c"] ;
261 -> 263 ;
264 [label="ExterQual_TA <= 0.5\nmse = 62500.0\nsamples = 2\nvalue = 109750.0", fillcolor="#e581391b"] ;
263 -> 264 ;
265 [label="mse = 0.0\nsamples = 1\nvalue = 109500.0", fillcolor="#e581391a"] ;
264 -> 265 ;
266 [label="mse = 0.0\nsamples = 1\nvalue = 110000.0", fillcolor="#e581391b"] ;
264 -> 266 ;
267 [label="ExterQual_TA <= 0.5\nmse = 5388888.889\nsamples = 3\nvalue = 118166.667", fillcolor="#e581391d"] ;
263 -> 267 ;
268 [label="BsmtExposure_No <= 0.5\nmse = 562500.0\nsamples = 2\nvalue = 119750.0", fillcolor="#e581391e"] ;
267 -> 268 ;
269 [label="mse = 0.0\nsamples = 1\nvalue = 120500.0", fillcolor="#e581391e"] ;
268 -> 269 ;
270 [label="mse = 0.0\nsamples = 1\nvalue = 119000.0", fillcolor="#e581391e"] ;
268 -> 270 ;
271 [label="mse = 0.0\nsamples = 1\nvalue = 115000.0", fillcolor="#e581391c"] ;
267 -> 271 ;
272 [label="FullBath <= -0.5\nmse = 229317021.44\nsamples = 10\nvalue = 123850.4", fillcolor="#e581391f"] ;
206 -> 272 ;
273 [label="GrLivArea <= -0.182\nmse = 201731483.0\nsamples = 8\nvalue = 127863.0", fillcolor="#e5813921"] ;
272 -> 273 ;
274 [label="GrLivArea <= -0.259\nmse = 281846666.667\nsamples = 3\nvalue = 139300.0", fillcolor="#e5813925"] ;
273 -> 274 ;
275 [label="mse = 0.0\nsamples = 1\nvalue = 116000.0", fillcolor="#e581391d"] ;
274 -> 275 ;
276 [label="YearBuilt <= -1.141\nmse = 15602500.0\nsamples = 2\nvalue = 150950.0", fillcolor="#e5813929"] ;
274 -> 276 ;
277 [label="mse = 0.0\nsamples = 1\nvalue = 147000.0", fillcolor="#e5813928"] ;
276 -> 277 ;
278 [label="mse = 0.0\nsamples = 1\nvalue = 154900.0", fillcolor="#e581392a"] ;
276 -> 278 ;
279 [label="YearBuilt <= -1.326\nmse = 28089602.56\nsamples = 5\nvalue = 121000.8", fillcolor="#e581391e"] ;
273 -> 279 ;
280 [label="1stFlrSF <= -0.519\nmse = 5053504.0\nsamples = 2\nvalue = 116752.0", fillcolor="#e581391d"] ;
279 -> 280 ;
281 [label="mse = 0.0\nsamples = 1\nvalue = 114504.0", fillcolor="#e581391c"] ;
280 -> 281 ;
282 [label="mse = 0.0\nsamples = 1\nvalue = 119000.0", fillcolor="#e581391e"] ;
280 -> 282 ;
283 [label="OverallQual <= -0.25\nmse = 23388888.889\nsamples = 3\nvalue = 123833.333", fillcolor="#e581391f"] ;
279 -> 283 ;
284 [label="mse = 0.0\nsamples = 1\nvalue = 117000.0", fillcolor="#e581391d"] ;
283 -> 284 ;
285 [label="TotRmsAbvGrd <= 0.25\nmse = 62500.0\nsamples = 2\nvalue = 127250.0", fillcolor="#e5813921"] ;
283 -> 285 ;
286 [label="mse = 0.0\nsamples = 1\nvalue = 127500.0", fillcolor="#e5813921"] ;
285 -> 286 ;
287 [label="mse = 0.0\nsamples = 1\nvalue = 127000.0", fillcolor="#e5813921"] ;
285 -> 287 ;
288 [label="YearBuilt <= -1.054\nmse = 17640000.0\nsamples = 2\nvalue = 107800.0", fillcolor="#e581391a"] ;
272 -> 288 ;
289 [label="mse = 0.0\nsamples = 1\nvalue = 112000.0", fillcolor="#e581391b"] ;
288 -> 289 ;
290 [label="mse = 0.0\nsamples = 1\nvalue = 103600.0", fillcolor="#e5813918"] ;
288 -> 290 ;
291 [label="TotalBsmtSF <= -0.831\nmse = 295363669.118\nsamples = 126\nvalue = 119044.31", fillcolor="#e581391e"] ;
205 -> 291 ;
292 [label="YearRemodAdd <= 0.176\nmse = 207980277.778\nsamples = 18\nvalue = 101316.667", fillcolor="#e5813918"] ;
291 -> 292 ;
293 [label="BsmtExposure_Mn <= 0.5\nmse = 86396734.694\nsamples = 14\nvalue = 95657.143", fillcolor="#e5813916"] ;
292 -> 293 ;
294 [label="YearRemodAdd <= -0.635\nmse = 56628888.889\nsamples = 12\nvalue = 93266.667", fillcolor="#e5813915"] ;
293 -> 294 ;
295 [label="YearRemodAdd <= -0.986\nmse = 33671875.0\nsamples = 4\nvalue = 100625.0", fillcolor="#e5813917"] ;
294 -> 295 ;
296 [label="GrLivArea <= -0.712\nmse = 4000000.0\nsamples = 2\nvalue = 95000.0", fillcolor="#e5813915"] ;
295 -> 296 ;
297 [label="mse = 0.0\nsamples = 1\nvalue = 97000.0", fillcolor="#e5813916"] ;
296 -> 297 ;
298 [label="mse = 0.0\nsamples = 1\nvalue = 93000.0", fillcolor="#e5813915"] ;
296 -> 298 ;
299 [label="1stFlrSF <= -0.794\nmse = 62500.0\nsamples = 2\nvalue = 106250.0", fillcolor="#e5813919"] ;
295 -> 299 ;
300 [label="mse = 0.0\nsamples = 1\nvalue = 106000.0", fillcolor="#e5813919"] ;
299 -> 300 ;
301 [label="mse = 0.0\nsamples = 1\nvalue = 106500.0", fillcolor="#e5813919"] ;
299 -> 301 ;
302 [label="TotRmsAbvGrd <= -0.75\nmse = 27498593.75\nsamples = 8\nvalue = 89587.5", fillcolor="#e5813913"] ;
294 -> 302 ;
303 [label="YearBuilt <= -0.402\nmse = 8295555.556\nsamples = 3\nvalue = 87233.333", fillcolor="#e5813913"] ;
302 -> 303 ;
304 [label="mse = 0.0\nsamples = 1\nvalue = 91300.0", fillcolor="#e5813914"] ;
303 -> 304 ;
305 [label="GrLivArea <= -0.64\nmse = 40000.0\nsamples = 2\nvalue = 85200.0", fillcolor="#e5813912"] ;
303 -> 305 ;
306 [label="mse = 0.0\nsamples = 1\nvalue = 85400.0", fillcolor="#e5813912"] ;
305 -> 306 ;
307 [label="mse = 0.0\nsamples = 1\nvalue = 85000.0", fillcolor="#e5813912"] ;
305 -> 307 ;
308 [label="YearBuilt <= -0.033\nmse = 33700000.0\nsamples = 5\nvalue = 91000.0", fillcolor="#e5813914"] ;
302 -> 308 ;
309 [label="SaleCondition_Normal <= 0.5\nmse = 562500.0\nsamples = 2\nvalue = 88750.0", fillcolor="#e5813913"] ;
308 -> 309 ;
310 [label="mse = 0.0\nsamples = 1\nvalue = 88000.0", fillcolor="#e5813913"] ;
309 -> 310 ;
311 [label="mse = 0.0\nsamples = 1\nvalue = 89500.0", fillcolor="#e5813913"] ;
309 -> 311 ;
312 [label="YearRemodAdd <= -0.581\nmse = 50166666.667\nsamples = 3\nvalue = 92500.0", fillcolor="#e5813914"] ;
308 -> 312 ;
313 [label="mse = 0.0\nsamples = 1\nvalue = 94500.0", fillcolor="#e5813915"] ;
312 -> 313 ;
314 [label="mse = 72250000.0\nsamples = 2\nvalue = 91500.0", fillcolor="#e5813914"] ;
312 -> 314 ;
315 [label="TotalBsmtSF <= -1.153\nmse = 25000000.0\nsamples = 2\nvalue = 110000.0", fillcolor="#e581391b"] ;
293 -> 315 ;
316 [label="mse = 0.0\nsamples = 1\nvalue = 115000.0", fillcolor="#e581391c"] ;
315 -> 316 ;
317 [label="mse = 0.0\nsamples = 1\nvalue = 105000.0", fillcolor="#e5813919"] ;
315 -> 317 ;
318 [label="YearRemodAdd <= 0.311\nmse = 129046875.0\nsamples = 4\nvalue = 121125.0", fillcolor="#e581391f"] ;
292 -> 318 ;
319 [label="mse = 0.0\nsamples = 1\nvalue = 139000.0", fillcolor="#e5813925"] ;
318 -> 319 ;
320 [label="GrLivArea <= -0.861\nmse = 30055555.556\nsamples = 3\nvalue = 115166.667", fillcolor="#e581391c"] ;
318 -> 320 ;
321 [label="mse = 0.0\nsamples = 1\nvalue = 107500.0", fillcolor="#e581391a"] ;
320 -> 321 ;
322 [label="GrLivArea <= -0.464\nmse = 1000000.0\nsamples = 2\nvalue = 119000.0", fillcolor="#e581391e"] ;
320 -> 322 ;
323 [label="mse = 0.0\nsamples = 1\nvalue = 118000.0", fillcolor="#e581391d"] ;
322 -> 323 ;
324 [label="mse = 0.0\nsamples = 1\nvalue = 120000.0", fillcolor="#e581391e"] ;
322 -> 324 ;
325 [label="SaleCondition_Normal <= 0.5\nmse = 248819644.095\nsamples = 108\nvalue = 121998.917", fillcolor="#e581391f"] ;
291 -> 325 ;
326 [label="1stFlrSF <= -0.729\nmse = 227222491.349\nsamples = 17\nvalue = 109547.059", fillcolor="#e581391a"] ;
325 -> 326 ;
327 [label="YearRemodAdd <= -0.919\nmse = 260375000.0\nsamples = 4\nvalue = 90500.0", fillcolor="#e5813914"] ;
326 -> 327 ;
328 [label="mse = 0.0\nsamples = 1\nvalue = 66500.0", fillcolor="#e581390b"] ;
327 -> 328 ;
329 [label="SaleType_WD <= 0.5\nmse = 91166666.667\nsamples = 3\nvalue = 98500.0", fillcolor="#e5813917"] ;
327 -> 329 ;
330 [label="mse = 0.0\nsamples = 1\nvalue = 112000.0", fillcolor="#e581391b"] ;
329 -> 330 ;
331 [label="YearRemodAdd <= -0.635\nmse = 62500.0\nsamples = 2\nvalue = 91750.0", fillcolor="#e5813914"] ;
329 -> 331 ;
332 [label="mse = 0.0\nsamples = 1\nvalue = 92000.0", fillcolor="#e5813914"] ;
331 -> 332 ;
333 [label="mse = 0.0\nsamples = 1\nvalue = 91500.0", fillcolor="#e5813914"] ;
331 -> 333 ;
334 [label="SaleType_Oth <= 0.5\nmse = 71046863.905\nsamples = 13\nvalue = 115407.692", fillcolor="#e581391d"] ;
326 -> 334 ;
335 [label="SaleCondition_AdjLand <= 0.5\nmse = 33638888.889\nsamples = 12\nvalue = 117233.333", fillcolor="#e581391d"] ;
334 -> 335 ;
336 [label="YearBuilt <= -0.163\nmse = 18518100.0\nsamples = 10\nvalue = 115330.0", fillcolor="#e581391c"] ;
335 -> 336 ;
337 [label="1stFlrSF <= -0.601\nmse = 10201875.0\nsamples = 8\nvalue = 116925.0", fillcolor="#e581391d"] ;
336 -> 337 ;
338 [label="mse = 0.0\nsamples = 1\nvalue = 110000.0", fillcolor="#e581391b"] ;
337 -> 338 ;
339 [label="1stFlrSF <= -0.57\nmse = 3829795.918\nsamples = 7\nvalue = 117914.286", fillcolor="#e581391d"] ;
337 -> 339 ;
340 [label="mse = 0.0\nsamples = 1\nvalue = 115000.0", fillcolor="#e581391c"] ;
339 -> 340 ;
341 [label="TotalBsmtSF <= -0.206\nmse = 2816666.667\nsamples = 6\nvalue = 118400.0", fillcolor="#e581391e"] ;
339 -> 341 ;
342 [label="YearBuilt <= -0.435\nmse = 392500.0\nsamples = 4\nvalue = 119350.0", fillcolor="#e581391e"] ;
341 -> 342 ;
343 [label="TotalBsmtSF <= -0.361\nmse = 62500.0\nsamples = 2\nvalue = 118750.0", fillcolor="#e581391e"] ;
342 -> 343 ;
344 [label="mse = 0.0\nsamples = 1\nvalue = 119000.0", fillcolor="#e581391e"] ;
343 -> 344 ;
345 [label="mse = 0.0\nsamples = 1\nvalue = 118500.0", fillcolor="#e581391e"] ;
343 -> 345 ;
346 [label="TotalBsmtSF <= -0.29\nmse = 2500.0\nsamples = 2\nvalue = 119950.0", fillcolor="#e581391e"] ;
342 -> 346 ;
347 [label="mse = 0.0\nsamples = 1\nvalue = 119900.0", fillcolor="#e581391e"] ;
346 -> 347 ;
348 [label="mse = 0.0\nsamples = 1\nvalue = 120000.0", fillcolor="#e581391e"] ;
346 -> 348 ;
349 [label="YearRemodAdd <= -0.946\nmse = 2250000.0\nsamples = 2\nvalue = 116500.0", fillcolor="#e581391d"] ;
341 -> 349 ;
350 [label="mse = 0.0\nsamples = 1\nvalue = 118000.0", fillcolor="#e581391d"] ;
349 -> 350 ;
351 [label="mse = 0.0\nsamples = 1\nvalue = 115000.0", fillcolor="#e581391c"] ;
349 -> 351 ;
352 [label="SaleCondition_Family <= 0.5\nmse = 902500.0\nsamples = 2\nvalue = 108950.0", fillcolor="#e581391a"] ;
336 -> 352 ;
353 [label="mse = 0.0\nsamples = 1\nvalue = 109900.0", fillcolor="#e581391b"] ;
352 -> 353 ;
354 [label="mse = 0.0\nsamples = 1\nvalue = 108000.0", fillcolor="#e581391a"] ;
352 -> 354 ;
355 [label="YearBuilt <= -0.337\nmse = 562500.0\nsamples = 2\nvalue = 126750.0", fillcolor="#e5813921"] ;
335 -> 355 ;
356 [label="mse = 0.0\nsamples = 1\nvalue = 126000.0", fillcolor="#e5813920"] ;
355 -> 356 ;
357 [label="mse = 0.0\nsamples = 1\nvalue = 127500.0", fillcolor="#e5813921"] ;
355 -> 357 ;
358 [label="mse = 0.0\nsamples = 1\nvalue = 93500.0", fillcolor="#e5813915"] ;
334 -> 358 ;
359 [label="TotalBsmtSF <= 0.022\nmse = 218478050.696\nsamples = 91\nvalue = 124325.088", fillcolor="#e5813920"] ;
325 -> 359 ;
360 [label="ExterQual_Gd <= 0.5\nmse = 198832878.287\nsamples = 90\nvalue = 124817.589", fillcolor="#e5813920"] ;
359 -> 360 ;
361 [label="BsmtExposure_No <= 0.5\nmse = 184772675.305\nsamples = 85\nvalue = 123808.035", fillcolor="#e581391f"] ;
360 -> 361 ;
362 [label="YearRemodAdd <= -1.162\nmse = 147329405.992\nsamples = 22\nvalue = 130284.091", fillcolor="#e5813922"] ;
361 -> 362 ;
363 [label="mse = 0.0\nsamples = 1\nvalue = 95000.0", fillcolor="#e5813915"] ;
362 -> 363 ;
364 [label="1stFlrSF <= -0.355\nmse = 92237891.156\nsamples = 21\nvalue = 131964.286", fillcolor="#e5813922"] ;
362 -> 364 ;
365 [label="GarageCars <= -1.5\nmse = 28948500.0\nsamples = 10\nvalue = 125850.0", fillcolor="#e5813920"] ;
364 -> 365 ;
366 [label="TotalBsmtSF <= -0.307\nmse = 1000000.0\nsamples = 2\nvalue = 117500.0", fillcolor="#e581391d"] ;
365 -> 366 ;
367 [label="mse = 0.0\nsamples = 1\nvalue = 118500.0", fillcolor="#e581391e"] ;
366 -> 367 ;
368 [label="mse = 0.0\nsamples = 1\nvalue = 116500.0", fillcolor="#e581391d"] ;
366 -> 368 ;
369 [label="1stFlrSF <= -0.615\nmse = 14147343.75\nsamples = 8\nvalue = 127937.5", fillcolor="#e5813921"] ;
365 -> 369 ;
370 [label="mse = 0.0\nsamples = 1\nvalue = 133900.0", fillcolor="#e5813923"] ;
369 -> 370 ;
371 [label="YearRemodAdd <= -0.662\nmse = 10364081.633\nsamples = 7\nvalue = 127085.714", fillcolor="#e5813921"] ;
369 -> 371 ;
372 [label="mse = 0.0\nsamples = 1\nvalue = 123000.0", fillcolor="#e581391f"] ;
371 -> 372 ;
373 [label="GrLivArea <= -0.964\nmse = 8845555.556\nsamples = 6\nvalue = 127766.667", fillcolor="#e5813921"] ;
371 -> 373 ;
374 [label="1stFlrSF <= -0.568\nmse = 40000.0\nsamples = 2\nvalue = 124700.0", fillcolor="#e5813920"] ;
373 -> 374 ;
375 [label="mse = 0.0\nsamples = 1\nvalue = 124900.0", fillcolor="#e5813920"] ;
374 -> 375 ;
376 [label="mse = 0.0\nsamples = 1\nvalue = 124500.0", fillcolor="#e5813920"] ;
374 -> 376 ;
377 [label="GrLivArea <= -0.904\nmse = 6195000.0\nsamples = 4\nvalue = 129300.0", fillcolor="#e5813921"] ;
373 -> 377 ;
378 [label="BsmtExposure_Mn <= 0.5\nmse = 7722222.222\nsamples = 3\nvalue = 129666.667", fillcolor="#e5813922"] ;
377 -> 378 ;
379 [label="mse = 10562500.0\nsamples = 2\nvalue = 130250.0", fillcolor="#e5813922"] ;
378 -> 379 ;
380 [label="mse = 0.0\nsamples = 1\nvalue = 128500.0", fillcolor="#e5813921"] ;
378 -> 380 ;
381 [label="mse = 0.0\nsamples = 1\nvalue = 128200.0", fillcolor="#e5813921"] ;
377 -> 381 ;
382 [label="YearRemodAdd <= 0.081\nmse = 84891528.926\nsamples = 11\nvalue = 137522.727", fillcolor="#e5813924"] ;
364 -> 382 ;
383 [label="TotalBsmtSF <= -0.578\nmse = 44722222.222\nsamples = 9\nvalue = 134250.0", fillcolor="#e5813923"] ;
382 -> 383 ;
384 [label="SaleType_ConLD <= 0.5\nmse = 6250000.0\nsamples = 2\nvalue = 142500.0", fillcolor="#e5813926"] ;
383 -> 384 ;
385 [label="mse = 0.0\nsamples = 1\nvalue = 145000.0", fillcolor="#e5813927"] ;
384 -> 385 ;
386 [label="mse = 0.0\nsamples = 1\nvalue = 140000.0", fillcolor="#e5813925"] ;
384 -> 386 ;
387 [label="YearRemodAdd <= -0.162\nmse = 30711734.694\nsamples = 7\nvalue = 131892.857", fillcolor="#e5813922"] ;
383 -> 387 ;
388 [label="1stFlrSF <= -0.027\nmse = 15967013.889\nsamples = 6\nvalue = 130208.333", fillcolor="#e5813922"] ;
387 -> 388 ;
389 [label="GrLivArea <= -0.755\nmse = 8360000.0\nsamples = 5\nvalue = 131550.0", fillcolor="#e5813922"] ;
388 -> 389 ;
390 [label="YearBuilt <= -0.022\nmse = 541666.667\nsamples = 3\nvalue = 129250.0", fillcolor="#e5813921"] ;
389 -> 390 ;
391 [label="YearBuilt <= -0.12\nmse = 62500.0\nsamples = 2\nvalue = 128750.0", fillcolor="#e5813921"] ;
390 -> 391 ;
392 [label="mse = 0.0\nsamples = 1\nvalue = 129000.0", fillcolor="#e5813921"] ;
391 -> 392 ;
393 [label="mse = 0.0\nsamples = 1\nvalue = 128500.0", fillcolor="#e5813921"] ;
391 -> 393 ;
394 [label="mse = 0.0\nsamples = 1\nvalue = 130250.0", fillcolor="#e5813922"] ;
390 -> 394 ;
395 [label="TotalBsmtSF <= -0.078\nmse = 250000.0\nsamples = 2\nvalue = 135000.0", fillcolor="#e5813923"] ;
389 -> 395 ;
396 [label="mse = 0.0\nsamples = 1\nvalue = 134500.0", fillcolor="#e5813923"] ;
395 -> 396 ;
397 [label="mse = 0.0\nsamples = 1\nvalue = 135500.0", fillcolor="#e5813924"] ;
395 -> 397 ;
398 [label="mse = 0.0\nsamples = 1\nvalue = 123500.0", fillcolor="#e581391f"] ;
388 -> 398 ;
399 [label="mse = 0.0\nsamples = 1\nvalue = 142000.0", fillcolor="#e5813926"] ;
387 -> 399 ;
400 [label="YearRemodAdd <= 0.135\nmse = 562500.0\nsamples = 2\nvalue = 152250.0", fillcolor="#e581392a"] ;
382 -> 400 ;
401 [label="mse = 0.0\nsamples = 1\nvalue = 151500.0", fillcolor="#e5813929"] ;
400 -> 401 ;
402 [label="mse = 0.0\nsamples = 1\nvalue = 153000.0", fillcolor="#e581392a"] ;
400 -> 402 ;
403 [label="GrLivArea <= -0.882\nmse = 178088343.517\nsamples = 63\nvalue = 121546.556", fillcolor="#e581391f"] ;
361 -> 403 ;
404 [label="YearRemodAdd <= -0.865\nmse = 292168934.13\nsamples = 13\nvalue = 113137.154", fillcolor="#e581391c"] ;
403 -> 404 ;
405 [label="YearRemodAdd <= -1.027\nmse = 15902222.222\nsamples = 3\nvalue = 125966.667", fillcolor="#e5813920"] ;
404 -> 405 ;
406 [label="mse = 0.0\nsamples = 1\nvalue = 120500.0", fillcolor="#e581391e"] ;
405 -> 406 ;
407 [label="YearBuilt <= -0.326\nmse = 1440000.0\nsamples = 2\nvalue = 128700.0", fillcolor="#e5813921"] ;
405 -> 407 ;
408 [label="mse = 0.0\nsamples = 1\nvalue = 129900.0", fillcolor="#e5813922"] ;
407 -> 408 ;
409 [label="mse = 0.0\nsamples = 1\nvalue = 127500.0", fillcolor="#e5813921"] ;
407 -> 409 ;
410 [label="YearRemodAdd <= -0.77\nmse = 310856352.01\nsamples = 10\nvalue = 109288.3", fillcolor="#e581391a"] ;
404 -> 410 ;
411 [label="mse = 0.0\nsamples = 1\nvalue = 62383.0", fillcolor="#e581390a"] ;
410 -> 411 ;
412 [label="YearBuilt <= -0.12\nmse = 73777777.778\nsamples = 9\nvalue = 114500.0", fillcolor="#e581391c"] ;
410 -> 412 ;
413 [label="YearRemodAdd <= 0.122\nmse = 35868055.556\nsamples = 6\nvalue = 110583.333", fillcolor="#e581391b"] ;
412 -> 413 ;
414 [label="YearBuilt <= -0.141\nmse = 17796875.0\nsamples = 4\nvalue = 107125.0", fillcolor="#e581391a"] ;
413 -> 414 ;
415 [label="1stFlrSF <= -0.624\nmse = 1166666.667\nsamples = 3\nvalue = 109500.0", fillcolor="#e581391a"] ;
414 -> 415 ;
416 [label="mse = 0.0\nsamples = 1\nvalue = 108000.0", fillcolor="#e581391a"] ;
415 -> 416 ;
417 [label="1stFlrSF <= -0.408\nmse = 62500.0\nsamples = 2\nvalue = 110250.0", fillcolor="#e581391b"] ;
415 -> 417 ;
418 [label="mse = 0.0\nsamples = 1\nvalue = 110500.0", fillcolor="#e581391b"] ;
417 -> 418 ;
419 [label="mse = 0.0\nsamples = 1\nvalue = 110000.0", fillcolor="#e581391b"] ;
417 -> 419 ;
420 [label="mse = 0.0\nsamples = 1\nvalue = 100000.0", fillcolor="#e5813917"] ;
414 -> 420 ;
421 [label="YearRemodAdd <= 0.27\nmse = 250000.0\nsamples = 2\nvalue = 117500.0", fillcolor="#e581391d"] ;
413 -> 421 ;
422 [label="mse = 0.0\nsamples = 1\nvalue = 117000.0", fillcolor="#e581391d"] ;
421 -> 422 ;
423 [label="mse = 0.0\nsamples = 1\nvalue = 118000.0", fillcolor="#e581391d"] ;
421 -> 423 ;
424 [label="YearBuilt <= 0.25\nmse = 57555555.556\nsamples = 3\nvalue = 122333.333", fillcolor="#e581391f"] ;
412 -> 424 ;
425 [label="TotRmsAbvGrd <= -0.75\nmse = 6250000.0\nsamples = 2\nvalue = 127500.0", fillcolor="#e5813921"] ;
424 -> 425 ;
426 [label="mse = 0.0\nsamples = 1\nvalue = 125000.0", fillcolor="#e5813920"] ;
425 -> 426 ;
427 [label="mse = 0.0\nsamples = 1\nvalue = 130000.0", fillcolor="#e5813922"] ;
425 -> 427 ;
428 [label="mse = 0.0\nsamples = 1\nvalue = 112000.0", fillcolor="#e581391b"] ;
424 -> 428 ;
429 [label="YearRemodAdd <= -0.392\nmse = 125260161.0\nsamples = 50\nvalue = 123733.0", fillcolor="#e581391f"] ;
403 -> 429 ;
430 [label="1stFlrSF <= -0.824\nmse = 145570018.365\nsamples = 33\nvalue = 120825.758", fillcolor="#e581391e"] ;
429 -> 430 ;
431 [label="OverallQual <= -0.25\nmse = 370562500.0\nsamples = 2\nvalue = 138750.0", fillcolor="#e5813925"] ;
430 -> 431 ;
432 [label="mse = 0.0\nsamples = 1\nvalue = 119500.0", fillcolor="#e581391e"] ;
431 -> 432 ;
433 [label="mse = 0.0\nsamples = 1\nvalue = 158000.0", fillcolor="#e581392c"] ;
431 -> 433 ;
434 [label="YearRemodAdd <= -0.689\nmse = 108989464.1\nsamples = 31\nvalue = 119669.355", fillcolor="#e581391e"] ;
430 -> 434 ;
435 [label="YearBuilt <= -0.283\nmse = 103793600.0\nsamples = 25\nvalue = 121670.0", fillcolor="#e581391f"] ;
434 -> 435 ;
436 [label="OverallQual <= -0.25\nmse = 87531666.667\nsamples = 15\nvalue = 118350.0", fillcolor="#e581391e"] ;
435 -> 436 ;
437 [label="FullBath <= -0.5\nmse = 57869357.639\nsamples = 12\nvalue = 115895.833", fillcolor="#e581391d"] ;
436 -> 437 ;
438 [label="1stFlrSF <= -0.203\nmse = 26934917.355\nsamples = 11\nvalue = 114159.091", fillcolor="#e581391c"] ;
437 -> 438 ;
439 [label="TotalBsmtSF <= -0.317\nmse = 17694335.938\nsamples = 8\nvalue = 111968.75", fillcolor="#e581391b"] ;
438 -> 439 ;
440 [label="GrLivArea <= -0.207\nmse = 4250000.0\nsamples = 4\nvalue = 108500.0", fillcolor="#e581391a"] ;
439 -> 440 ;
441 [label="YearBuilt <= -0.641\nmse = 222222.222\nsamples = 3\nvalue = 109666.667", fillcolor="#e581391a"] ;
440 -> 441 ;
442 [label="mse = 0.0\nsamples = 1\nvalue = 109000.0", fillcolor="#e581391a"] ;
441 -> 442 ;
443 [label="mse = 0.0\nsamples = 2\nvalue = 110000.0", fillcolor="#e581391b"] ;
441 -> 443 ;
444 [label="mse = 0.0\nsamples = 1\nvalue = 105000.0", fillcolor="#e5813919"] ;
440 -> 444 ;
445 [label="1stFlrSF <= -0.287\nmse = 7074218.75\nsamples = 4\nvalue = 115437.5", fillcolor="#e581391d"] ;
439 -> 445 ;
446 [label="1stFlrSF <= -0.328\nmse = 1166666.667\nsamples = 3\nvalue = 114000.0", fillcolor="#e581391c"] ;
445 -> 446 ;
447 [label="TotalBsmtSF <= -0.174\nmse = 62500.0\nsamples = 2\nvalue = 114750.0", fillcolor="#e581391c"] ;
446 -> 447 ;
448 [label="mse = 0.0\nsamples = 1\nvalue = 115000.0", fillcolor="#e581391c"] ;
447 -> 448 ;
449 [label="mse = 0.0\nsamples = 1\nvalue = 114500.0", fillcolor="#e581391c"] ;
447 -> 449 ;
450 [label="mse = 0.0\nsamples = 1\nvalue = 112500.0", fillcolor="#e581391b"] ;
446 -> 450 ;
451 [label="mse = 0.0\nsamples = 1\nvalue = 119750.0", fillcolor="#e581391e"] ;
445 -> 451 ;
452 [label="TotalBsmtSF <= -0.497\nmse = 4666666.667\nsamples = 3\nvalue = 120000.0", fillcolor="#e581391e"] ;
438 -> 452 ;
453 [label="mse = 0.0\nsamples = 1\nvalue = 123000.0", fillcolor="#e581391f"] ;
452 -> 453 ;
454 [label="TotalBsmtSF <= -0.115\nmse = 250000.0\nsamples = 2\nvalue = 118500.0", fillcolor="#e581391e"] ;
452 -> 454 ;
455 [label="mse = 0.0\nsamples = 1\nvalue = 119000.0", fillcolor="#e581391e"] ;
454 -> 455 ;
456 [label="mse = 0.0\nsamples = 1\nvalue = 118000.0", fillcolor="#e581391d"] ;
454 -> 456 ;
457 [label="mse = 0.0\nsamples = 1\nvalue = 135000.0", fillcolor="#e5813923"] ;
437 -> 457 ;
458 [label="GrLivArea <= -0.137\nmse = 85722222.222\nsamples = 3\nvalue = 128166.667", fillcolor="#e5813921"] ;
436 -> 458 ;
459 [label="YearBuilt <= -0.641\nmse = 72250000.0\nsamples = 2\nvalue = 132500.0", fillcolor="#e5813923"] ;
458 -> 459 ;
460 [label="mse = 0.0\nsamples = 1\nvalue = 141000.0", fillcolor="#e5813926"] ;
459 -> 460 ;
461 [label="mse = 0.0\nsamples = 1\nvalue = 124000.0", fillcolor="#e5813920"] ;
459 -> 461 ;
462 [label="mse = 0.0\nsamples = 1\nvalue = 119500.0", fillcolor="#e581391e"] ;
458 -> 462 ;
463 [label="TotRmsAbvGrd <= -0.75\nmse = 86852500.0\nsamples = 10\nvalue = 126650.0", fillcolor="#e5813920"] ;
435 -> 463 ;
464 [label="mse = 0.0\nsamples = 1\nvalue = 144000.0", fillcolor="#e5813927"] ;
463 -> 464 ;
465 [label="GrLivArea <= -0.825\nmse = 59339506.173\nsamples = 9\nvalue = 124722.222", fillcolor="#e5813920"] ;
463 -> 465 ;
466 [label="YearRemodAdd <= -0.77\nmse = 32895833.333\nsamples = 6\nvalue = 120750.0", fillcolor="#e581391e"] ;
465 -> 466 ;
467 [label="YearBuilt <= -0.207\nmse = 16000000.0\nsamples = 2\nvalue = 113500.0", fillcolor="#e581391c"] ;
466 -> 467 ;
468 [label="mse = 0.0\nsamples = 1\nvalue = 109500.0", fillcolor="#e581391a"] ;
467 -> 468 ;
469 [label="mse = 0.0\nsamples = 1\nvalue = 117500.0", fillcolor="#e581391d"] ;
467 -> 469 ;
470 [label="GrLivArea <= -0.87\nmse = 1921875.0\nsamples = 4\nvalue = 124375.0", fillcolor="#e5813920"] ;
466 -> 470 ;
471 [label="GrLivArea <= -0.876\nmse = 2250000.0\nsamples = 2\nvalue = 123500.0", fillcolor="#e581391f"] ;
470 -> 471 ;
472 [label="mse = 0.0\nsamples = 1\nvalue = 125000.0", fillcolor="#e5813920"] ;
471 -> 472 ;
473 [label="mse = 0.0\nsamples = 1\nvalue = 122000.0", fillcolor="#e581391f"] ;
471 -> 473 ;
474 [label="1stFlrSF <= -0.353\nmse = 62500.0\nsamples = 2\nvalue = 125250.0", fillcolor="#e5813920"] ;
470 -> 474 ;
475 [label="mse = 0.0\nsamples = 1\nvalue = 125500.0", fillcolor="#e5813920"] ;
474 -> 475 ;
476 [label="mse = 0.0\nsamples = 1\nvalue = 125000.0", fillcolor="#e5813920"] ;
474 -> 476 ;
477 [label="TotRmsAbvGrd <= -0.25\nmse = 17555555.556\nsamples = 3\nvalue = 132666.667", fillcolor="#e5813923"] ;
465 -> 477 ;
478 [label="YearRemodAdd <= -0.743\nmse = 2250000.0\nsamples = 2\nvalue = 135500.0", fillcolor="#e5813924"] ;
477 -> 478 ;
479 [label="mse = 0.0\nsamples = 1\nvalue = 137000.0", fillcolor="#e5813924"] ;
478 -> 479 ;
480 [label="mse = 0.0\nsamples = 1\nvalue = 134000.0", fillcolor="#e5813923"] ;
478 -> 480 ;
481 [label="mse = 0.0\nsamples = 1\nvalue = 127000.0", fillcolor="#e5813921"] ;
477 -> 481 ;
482 [label="GrLivArea <= -0.839\nmse = 44472222.222\nsamples = 6\nvalue = 111333.333", fillcolor="#e581391b"] ;
434 -> 482 ;
483 [label="mse = 0.0\nsamples = 1\nvalue = 99500.0", fillcolor="#e5813917"] ;
482 -> 483 ;
484 [label="1stFlrSF <= -0.224\nmse = 19760000.0\nsamples = 5\nvalue = 113700.0", fillcolor="#e581391c"] ;
482 -> 484 ;
485 [label="YearBuilt <= -0.011\nmse = 14546875.0\nsamples = 4\nvalue = 115125.0", fillcolor="#e581391c"] ;
484 -> 485 ;
486 [label="TotRmsAbvGrd <= 0.0\nmse = 562500.0\nsamples = 2\nvalue = 118750.0", fillcolor="#e581391e"] ;
485 -> 486 ;
487 [label="mse = 0.0\nsamples = 1\nvalue = 119500.0", fillcolor="#e581391e"] ;
486 -> 487 ;
488 [label="mse = 0.0\nsamples = 1\nvalue = 118000.0", fillcolor="#e581391d"] ;
486 -> 488 ;
489 [label="TotRmsAbvGrd <= 0.0\nmse = 2250000.0\nsamples = 2\nvalue = 111500.0", fillcolor="#e581391b"] ;
485 -> 489 ;
490 [label="mse = 0.0\nsamples = 1\nvalue = 110000.0", fillcolor="#e581391b"] ;
489 -> 490 ;
491 [label="mse = 0.0\nsamples = 1\nvalue = 113000.0", fillcolor="#e581391c"] ;
489 -> 491 ;
492 [label="mse = 0.0\nsamples = 1\nvalue = 108000.0", fillcolor="#e581391a"] ;
484 -> 492 ;
493 [label="TotalBsmtSF <= -0.212\nmse = 37579446.367\nsamples = 17\nvalue = 129376.471", fillcolor="#e5813921"] ;
429 -> 493 ;
494 [label="YearBuilt <= 0.011\nmse = 18214375.0\nsamples = 8\nvalue = 126425.0", fillcolor="#e5813920"] ;
493 -> 494 ;
495 [label="GrLivArea <= -0.342\nmse = 4462500.0\nsamples = 6\nvalue = 128650.0", fillcolor="#e5813921"] ;
494 -> 495 ;
496 [label="YearRemodAdd <= -0.135\nmse = 335555.556\nsamples = 3\nvalue = 130633.333", fillcolor="#e5813922"] ;
495 -> 496 ;
497 [label="mse = 0.0\nsamples = 1\nvalue = 131400.0", fillcolor="#e5813922"] ;
496 -> 497 ;
498 [label="YearRemodAdd <= 0.149\nmse = 62500.0\nsamples = 2\nvalue = 130250.0", fillcolor="#e5813922"] ;
496 -> 498 ;
499 [label="mse = 0.0\nsamples = 1\nvalue = 130500.0", fillcolor="#e5813922"] ;
498 -> 499 ;
500 [label="mse = 0.0\nsamples = 1\nvalue = 130000.0", fillcolor="#e5813922"] ;
498 -> 500 ;
501 [label="TotalBsmtSF <= -0.505\nmse = 722222.222\nsamples = 3\nvalue = 126666.667", fillcolor="#e5813920"] ;
495 -> 501 ;
502 [label="GrLivArea <= -0.222\nmse = 62500.0\nsamples = 2\nvalue = 127250.0", fillcolor="#e5813921"] ;
501 -> 502 ;
503 [label="mse = 0.0\nsamples = 1\nvalue = 127000.0", fillcolor="#e5813921"] ;
502 -> 503 ;
504 [label="mse = 0.0\nsamples = 1\nvalue = 127500.0", fillcolor="#e5813921"] ;
502 -> 504 ;
505 [label="mse = 0.0\nsamples = 1\nvalue = 125500.0", fillcolor="#e5813920"] ;
501 -> 505 ;
506 [label="YearRemodAdd <= -0.311\nmse = 62500.0\nsamples = 2\nvalue = 119750.0", fillcolor="#e581391e"] ;
494 -> 506 ;
507 [label="mse = 0.0\nsamples = 1\nvalue = 120000.0", fillcolor="#e581391e"] ;
506 -> 507 ;
508 [label="mse = 0.0\nsamples = 1\nvalue = 119500.0", fillcolor="#e581391e"] ;
506 -> 508 ;
509 [label="YearRemodAdd <= -0.311\nmse = 40166666.667\nsamples = 9\nvalue = 132000.0", fillcolor="#e5813922"] ;
493 -> 509 ;
510 [label="mse = 0.0\nsamples = 1\nvalue = 143000.0", fillcolor="#e5813926"] ;
509 -> 510 ;
511 [label="YearRemodAdd <= -0.122\nmse = 28171875.0\nsamples = 8\nvalue = 130625.0", fillcolor="#e5813922"] ;
509 -> 511 ;
512 [label="mse = 0.0\nsamples = 1\nvalue = 120000.0", fillcolor="#e581391e"] ;
511 -> 512 ;
513 [label="TotalBsmtSF <= -0.142\nmse = 13765306.122\nsamples = 7\nvalue = 132142.857", fillcolor="#e5813922"] ;
511 -> 513 ;
514 [label="TotalBsmtSF <= -0.176\nmse = 3062500.0\nsamples = 2\nvalue = 136750.0", fillcolor="#e5813924"] ;
513 -> 514 ;
515 [label="mse = 0.0\nsamples = 1\nvalue = 138500.0", fillcolor="#e5813925"] ;
514 -> 515 ;
516 [label="mse = 0.0\nsamples = 1\nvalue = 135000.0", fillcolor="#e5813923"] ;
514 -> 516 ;
517 [label="YearRemodAdd <= 0.081\nmse = 6160000.0\nsamples = 5\nvalue = 130300.0", fillcolor="#e5813922"] ;
513 -> 517 ;
518 [label="mse = 0.0\nsamples = 1\nvalue = 126000.0", fillcolor="#e5813920"] ;
517 -> 518 ;
519 [label="YearRemodAdd <= 0.176\nmse = 1921875.0\nsamples = 4\nvalue = 131375.0", fillcolor="#e5813922"] ;
517 -> 519 ;
520 [label="TotalBsmtSF <= -0.118\nmse = 2250000.0\nsamples = 2\nvalue = 130500.0", fillcolor="#e5813922"] ;
519 -> 520 ;
521 [label="mse = 0.0\nsamples = 1\nvalue = 132000.0", fillcolor="#e5813922"] ;
520 -> 521 ;
522 [label="mse = 0.0\nsamples = 1\nvalue = 129000.0", fillcolor="#e5813921"] ;
520 -> 522 ;
523 [label="OverallQual <= -0.25\nmse = 62500.0\nsamples = 2\nvalue = 132250.0", fillcolor="#e5813922"] ;
519 -> 523 ;
524 [label="mse = 0.0\nsamples = 1\nvalue = 132500.0", fillcolor="#e5813923"] ;
523 -> 524 ;
525 [label="mse = 0.0\nsamples = 1\nvalue = 132000.0", fillcolor="#e5813922"] ;
523 -> 525 ;
526 [label="GrLivArea <= -0.272\nmse = 125981600.0\nsamples = 5\nvalue = 141980.0", fillcolor="#e5813926"] ;
360 -> 526 ;
527 [label="FullBath <= -0.5\nmse = 56001875.0\nsamples = 4\nvalue = 137475.0", fillcolor="#e5813924"] ;
526 -> 527 ;
528 [label="TotalBsmtSF <= -0.286\nmse = 6055555.556\nsamples = 3\nvalue = 133333.333", fillcolor="#e5813923"] ;
527 -> 528 ;
529 [label="GrLivArea <= -0.652\nmse = 1562500.0\nsamples = 2\nvalue = 131750.0", fillcolor="#e5813922"] ;
528 -> 529 ;
530 [label="mse = 0.0\nsamples = 1\nvalue = 130500.0", fillcolor="#e5813922"] ;
529 -> 530 ;
531 [label="mse = 0.0\nsamples = 1\nvalue = 133000.0", fillcolor="#e5813923"] ;
529 -> 531 ;
532 [label="mse = 0.0\nsamples = 1\nvalue = 136500.0", fillcolor="#e5813924"] ;
528 -> 532 ;
533 [label="mse = 0.0\nsamples = 1\nvalue = 149900.0", fillcolor="#e5813929"] ;
527 -> 533 ;
534 [label="mse = 0.0\nsamples = 1\nvalue = 160000.0", fillcolor="#e581392c"] ;
526 -> 534 ;
535 [label="mse = 0.0\nsamples = 1\nvalue = 80000.0", fillcolor="#e5813910"] ;
359 -> 535 ;
536 [label="YearBuilt <= -0.37\nmse = 394614429.913\nsamples = 101\nvalue = 132707.782", fillcolor="#e5813923"] ;
204 -> 536 ;
537 [label="GrLivArea <= -1.004\nmse = 482419729.599\nsamples = 34\nvalue = 117167.441", fillcolor="#e581391d"] ;
536 -> 537 ;
538 [label="GrLivArea <= -1.115\nmse = 166226875.0\nsamples = 4\nvalue = 85475.0", fillcolor="#e5813912"] ;
537 -> 538 ;
539 [label="mse = 0.0\nsamples = 1\nvalue = 105900.0", fillcolor="#e5813919"] ;
538 -> 539 ;
540 [label="YearBuilt <= -0.837\nmse = 36222222.222\nsamples = 3\nvalue = 78666.667", fillcolor="#e581390f"] ;
538 -> 540 ;
541 [label="YearBuilt <= -1.011\nmse = 2250000.0\nsamples = 2\nvalue = 74500.0", fillcolor="#e581390e"] ;
540 -> 541 ;
542 [label="mse = 0.0\nsamples = 1\nvalue = 73000.0", fillcolor="#e581390d"] ;
541 -> 542 ;
543 [label="mse = 0.0\nsamples = 1\nvalue = 76000.0", fillcolor="#e581390f"] ;
541 -> 543 ;
544 [label="mse = 0.0\nsamples = 1\nvalue = 87000.0", fillcolor="#e5813912"] ;
540 -> 544 ;
545 [label="SaleCondition_Alloca <= 0.5\nmse = 372801140.69\nsamples = 30\nvalue = 121393.1", fillcolor="#e581391f"] ;
537 -> 545 ;
546 [label="TotalBsmtSF <= -0.304\nmse = 233081807.372\nsamples = 29\nvalue = 123648.276", fillcolor="#e581391f"] ;
545 -> 546 ;
547 [label="YearRemodAdd <= -1.068\nmse = 136373487.654\nsamples = 18\nvalue = 118638.889", fillcolor="#e581391e"] ;
546 -> 547 ;
548 [label="TotRmsAbvGrd <= 0.25\nmse = 109561093.75\nsamples = 8\nvalue = 111587.5", fillcolor="#e581391b"] ;
547 -> 548 ;
549 [label="GrLivArea <= -0.413\nmse = 65822222.222\nsamples = 6\nvalue = 116066.667", fillcolor="#e581391d"] ;
548 -> 549 ;
550 [label="1stFlrSF <= -0.516\nmse = 25465600.0\nsamples = 5\nvalue = 113080.0", fillcolor="#e581391c"] ;
549 -> 550 ;
551 [label="OverallQual <= -0.25\nmse = 5180000.0\nsamples = 3\nvalue = 116800.0", fillcolor="#e581391d"] ;
550 -> 551 ;
552 [label="mse = 0.0\nsamples = 1\nvalue = 119900.0", fillcolor="#e581391e"] ;
551 -> 552 ;
553 [label="GrLivArea <= -0.49\nmse = 562500.0\nsamples = 2\nvalue = 115250.0", fillcolor="#e581391c"] ;
551 -> 553 ;
554 [label="mse = 0.0\nsamples = 1\nvalue = 116000.0", fillcolor="#e581391d"] ;
553 -> 554 ;
555 [label="mse = 0.0\nsamples = 1\nvalue = 114500.0", fillcolor="#e581391c"] ;
553 -> 555 ;
556 [label="YearBuilt <= -0.457\nmse = 4000000.0\nsamples = 2\nvalue = 107500.0", fillcolor="#e581391a"] ;
550 -> 556 ;
557 [label="mse = 0.0\nsamples = 1\nvalue = 109500.0", fillcolor="#e581391a"] ;
556 -> 557 ;
558 [label="mse = 0.0\nsamples = 1\nvalue = 105500.0", fillcolor="#e5813919"] ;
556 -> 558 ;
559 [label="mse = 0.0\nsamples = 1\nvalue = 131000.0", fillcolor="#e5813922"] ;
549 -> 559 ;
560 [label="TotalBsmtSF <= -1.352\nmse = 22500.0\nsamples = 2\nvalue = 98150.0", fillcolor="#e5813916"] ;
548 -> 560 ;
561 [label="mse = 0.0\nsamples = 1\nvalue = 98300.0", fillcolor="#e5813916"] ;
560 -> 561 ;
562 [label="mse = 0.0\nsamples = 1\nvalue = 98000.0", fillcolor="#e5813916"] ;
560 -> 562 ;
563 [label="GrLivArea <= -0.346\nmse = 86223600.0\nsamples = 10\nvalue = 124280.0", fillcolor="#e5813920"] ;
547 -> 563 ;
564 [label="TotRmsAbvGrd <= -0.75\nmse = 78530000.0\nsamples = 6\nvalue = 119800.0", fillcolor="#e581391e"] ;
563 -> 564 ;
565 [label="ExterQual_TA <= 0.5\nmse = 24502500.0\nsamples = 2\nvalue = 129950.0", fillcolor="#e5813922"] ;
564 -> 565 ;
566 [label="mse = 0.0\nsamples = 1\nvalue = 134900.0", fillcolor="#e5813923"] ;
565 -> 566 ;
567 [label="mse = 0.0\nsamples = 1\nvalue = 125000.0", fillcolor="#e5813920"] ;
565 -> 567 ;
568 [label="GrLivArea <= -0.624\nmse = 28276875.0\nsamples = 4\nvalue = 114725.0", fillcolor="#e581391c"] ;
564 -> 568 ;
569 [label="TotRmsAbvGrd <= -0.25\nmse = 11902500.0\nsamples = 2\nvalue = 119450.0", fillcolor="#e581391e"] ;
568 -> 569 ;
570 [label="mse = 0.0\nsamples = 1\nvalue = 116000.0", fillcolor="#e581391d"] ;
569 -> 570 ;
571 [label="mse = 0.0\nsamples = 1\nvalue = 122900.0", fillcolor="#e581391f"] ;
569 -> 571 ;
572 [label="mse = 0.0\nsamples = 2\nvalue = 110000.0", fillcolor="#e581391b"] ;
568 -> 572 ;
573 [label="1stFlrSF <= -0.748\nmse = 22500000.0\nsamples = 4\nvalue = 131000.0", fillcolor="#e5813922"] ;
563 -> 573 ;
574 [label="mse = 0.0\nsamples = 1\nvalue = 139000.0", fillcolor="#e5813925"] ;
573 -> 574 ;
575 [label="YearRemodAdd <= -0.568\nmse = 1555555.556\nsamples = 3\nvalue = 128333.333", fillcolor="#e5813921"] ;
573 -> 575 ;
576 [label="mse = 0.0\nsamples = 1\nvalue = 130000.0", fillcolor="#e5813922"] ;
575 -> 576 ;
577 [label="FullBath <= -0.5\nmse = 250000.0\nsamples = 2\nvalue = 127500.0", fillcolor="#e5813921"] ;
575 -> 577 ;
578 [label="mse = 0.0\nsamples = 1\nvalue = 127000.0", fillcolor="#e5813921"] ;
577 -> 578 ;
579 [label="mse = 0.0\nsamples = 1\nvalue = 128000.0", fillcolor="#e5813921"] ;
577 -> 579 ;
580 [label="TotalBsmtSF <= -0.063\nmse = 283075206.612\nsamples = 11\nvalue = 131845.455", fillcolor="#e5813922"] ;
546 -> 580 ;
581 [label="1stFlrSF <= -0.253\nmse = 162115061.728\nsamples = 9\nvalue = 137477.778", fillcolor="#e5813924"] ;
580 -> 581 ;
582 [label="YearBuilt <= -0.435\nmse = 58955555.556\nsamples = 6\nvalue = 130466.667", fillcolor="#e5813922"] ;
581 -> 582 ;
583 [label="TotRmsAbvGrd <= -0.75\nmse = 13334400.0\nsamples = 5\nvalue = 133560.0", fillcolor="#e5813923"] ;
582 -> 583 ;
584 [label="SaleType_WD <= 0.5\nmse = 4000000.0\nsamples = 2\nvalue = 137000.0", fillcolor="#e5813924"] ;
583 -> 584 ;
585 [label="mse = 0.0\nsamples = 1\nvalue = 139000.0", fillcolor="#e5813925"] ;
584 -> 585 ;
586 [label="mse = 0.0\nsamples = 1\nvalue = 135000.0", fillcolor="#e5813923"] ;
584 -> 586 ;
587 [label="BsmtExposure_No <= 0.5\nmse = 6408888.889\nsamples = 3\nvalue = 131266.667", fillcolor="#e5813922"] ;
583 -> 587 ;
588 [label="mse = 0.0\nsamples = 1\nvalue = 134800.0", fillcolor="#e5813923"] ;
587 -> 588 ;
589 [label="1stFlrSF <= -0.377\nmse = 250000.0\nsamples = 2\nvalue = 129500.0", fillcolor="#e5813921"] ;
587 -> 589 ;
590 [label="mse = 0.0\nsamples = 1\nvalue = 129000.0", fillcolor="#e5813921"] ;
589 -> 590 ;
591 [label="mse = 0.0\nsamples = 1\nvalue = 130000.0", fillcolor="#e5813922"] ;
589 -> 591 ;
592 [label="mse = 0.0\nsamples = 1\nvalue = 115000.0", fillcolor="#e581391c"] ;
582 -> 592 ;
593 [label="TotalBsmtSF <= -0.191\nmse = 73500000.0\nsamples = 3\nvalue = 151500.0", fillcolor="#e5813929"] ;
581 -> 593 ;
594 [label="mse = 0.0\nsamples = 1\nvalue = 163500.0", fillcolor="#e581392e"] ;
593 -> 594 ;
595 [label="TotalBsmtSF <= -0.143\nmse = 2250000.0\nsamples = 2\nvalue = 145500.0", fillcolor="#e5813927"] ;
593 -> 595 ;
596 [label="mse = 0.0\nsamples = 1\nvalue = 144000.0", fillcolor="#e5813927"] ;
595 -> 596 ;
597 [label="mse = 0.0\nsamples = 1\nvalue = 147000.0", fillcolor="#e5813928"] ;
595 -> 597 ;
598 [label="ExterQual_Gd <= 0.5\nmse = 42250000.0\nsamples = 2\nvalue = 106500.0", fillcolor="#e5813919"] ;
580 -> 598 ;
599 [label="mse = 0.0\nsamples = 1\nvalue = 113000.0", fillcolor="#e581391c"] ;
598 -> 599 ;
600 [label="mse = 0.0\nsamples = 1\nvalue = 100000.0", fillcolor="#e5813917"] ;
598 -> 600 ;
601 [label="mse = 0.0\nsamples = 1\nvalue = 55993.0", fillcolor="#e5813907"] ;
545 -> 601 ;
602 [label="OverallQual <= -0.25\nmse = 165311907.711\nsamples = 67\nvalue = 140593.925", fillcolor="#e5813925"] ;
536 -> 602 ;
603 [label="YearRemodAdd <= -0.473\nmse = 128030751.347\nsamples = 35\nvalue = 134590.286", fillcolor="#e5813923"] ;
602 -> 603 ;
604 [label="1stFlrSF <= -0.391\nmse = 144069843.75\nsamples = 16\nvalue = 127737.5", fillcolor="#e5813921"] ;
603 -> 604 ;
605 [label="FullBath <= -0.5\nmse = 81248163.265\nsamples = 7\nvalue = 119342.857", fillcolor="#e581391e"] ;
604 -> 605 ;
606 [label="ExterQual_TA <= 0.5\nmse = 60172222.222\nsamples = 6\nvalue = 121566.667", fillcolor="#e581391f"] ;
605 -> 606 ;
607 [label="mse = 0.0\nsamples = 1\nvalue = 110000.0", fillcolor="#e581391b"] ;
606 -> 607 ;
608 [label="TotalBsmtSF <= -0.236\nmse = 40097600.0\nsamples = 5\nvalue = 123880.0", fillcolor="#e5813920"] ;
606 -> 608 ;
609 [label="TotRmsAbvGrd <= -0.25\nmse = 9651875.0\nsamples = 4\nvalue = 126725.0", fillcolor="#e5813921"] ;
608 -> 609 ;
610 [label="TotalBsmtSF <= -0.349\nmse = 40000.0\nsamples = 2\nvalue = 129700.0", fillcolor="#e5813922"] ;
609 -> 610 ;
611 [label="mse = 0.0\nsamples = 1\nvalue = 129500.0", fillcolor="#e5813921"] ;
610 -> 611 ;
612 [label="mse = 0.0\nsamples = 1\nvalue = 129900.0", fillcolor="#e5813922"] ;
610 -> 612 ;
613 [label="TotRmsAbvGrd <= 0.25\nmse = 1562500.0\nsamples = 2\nvalue = 123750.0", fillcolor="#e581391f"] ;
609 -> 613 ;
614 [label="mse = 0.0\nsamples = 1\nvalue = 122500.0", fillcolor="#e581391f"] ;
613 -> 614 ;
615 [label="mse = 0.0\nsamples = 1\nvalue = 125000.0", fillcolor="#e5813920"] ;
613 -> 615 ;
616 [label="mse = 0.0\nsamples = 1\nvalue = 112500.0", fillcolor="#e581391b"] ;
608 -> 616 ;
617 [label="mse = 0.0\nsamples = 1\nvalue = 106000.0", fillcolor="#e5813919"] ;
605 -> 617 ;
618 [label="BsmtExposure_No <= 0.5\nmse = 95491111.111\nsamples = 9\nvalue = 134266.667", fillcolor="#e5813923"] ;
604 -> 618 ;
619 [label="YearBuilt <= 0.054\nmse = 22388888.889\nsamples = 3\nvalue = 125833.333", fillcolor="#e5813920"] ;
618 -> 619 ;
620 [label="YearBuilt <= 0.011\nmse = 250000.0\nsamples = 2\nvalue = 122500.0", fillcolor="#e581391f"] ;
619 -> 620 ;
621 [label="mse = 0.0\nsamples = 1\nvalue = 123000.0", fillcolor="#e581391f"] ;
620 -> 621 ;
622 [label="mse = 0.0\nsamples = 1\nvalue = 122000.0", fillcolor="#e581391f"] ;
620 -> 622 ;
623 [label="mse = 0.0\nsamples = 1\nvalue = 132500.0", fillcolor="#e5813923"] ;
619 -> 623 ;
624 [label="YearBuilt <= -0.087\nmse = 78701388.889\nsamples = 6\nvalue = 138483.333", fillcolor="#e5813925"] ;
618 -> 624 ;
625 [label="YearRemodAdd <= -0.865\nmse = 3166666.667\nsamples = 3\nvalue = 130000.0", fillcolor="#e5813922"] ;
624 -> 625 ;
626 [label="mse = 0.0\nsamples = 1\nvalue = 128500.0", fillcolor="#e5813921"] ;
625 -> 626 ;
627 [label="TotalBsmtSF <= -0.118\nmse = 3062500.0\nsamples = 2\nvalue = 130750.0", fillcolor="#e5813922"] ;
625 -> 627 ;
628 [label="mse = 0.0\nsamples = 1\nvalue = 129000.0", fillcolor="#e5813921"] ;
627 -> 628 ;
629 [label="mse = 0.0\nsamples = 1\nvalue = 132500.0", fillcolor="#e5813923"] ;
627 -> 629 ;
630 [label="YearRemodAdd <= -0.568\nmse = 10302222.222\nsamples = 3\nvalue = 146966.667", fillcolor="#e5813928"] ;
624 -> 630 ;
631 [label="YearBuilt <= -0.043\nmse = 490000.0\nsamples = 2\nvalue = 149200.0", fillcolor="#e5813928"] ;
630 -> 631 ;
632 [label="mse = 0.0\nsamples = 1\nvalue = 148500.0", fillcolor="#e5813928"] ;
631 -> 632 ;
633 [label="mse = 0.0\nsamples = 1\nvalue = 149900.0", fillcolor="#e5813929"] ;
631 -> 633 ;
634 [label="mse = 0.0\nsamples = 1\nvalue = 142500.0", fillcolor="#e5813926"] ;
630 -> 634 ;
635 [label="YearBuilt <= 0.467\nmse = 41676567.313\nsamples = 19\nvalue = 140361.053", fillcolor="#e5813925"] ;
603 -> 635 ;
636 [label="GrLivArea <= -0.861\nmse = 26168460.938\nsamples = 16\nvalue = 138616.25", fillcolor="#e5813925"] ;
635 -> 636 ;
637 [label="TotalBsmtSF <= -0.26\nmse = 19686938.776\nsamples = 7\nvalue = 135414.286", fillcolor="#e5813924"] ;
636 -> 637 ;
638 [label="1stFlrSF <= -0.422\nmse = 13937600.0\nsamples = 5\nvalue = 137380.0", fillcolor="#e5813924"] ;
637 -> 638 ;
639 [label="TotRmsAbvGrd <= -0.75\nmse = 3726875.0\nsamples = 4\nvalue = 135725.0", fillcolor="#e5813924"] ;
638 -> 639 ;
640 [label="BsmtExposure_No <= 0.5\nmse = 250000.0\nsamples = 2\nvalue = 137500.0", fillcolor="#e5813924"] ;
639 -> 640 ;
641 [label="mse = 0.0\nsamples = 1\nvalue = 137000.0", fillcolor="#e5813924"] ;
640 -> 641 ;
642 [label="mse = 0.0\nsamples = 1\nvalue = 138000.0", fillcolor="#e5813925"] ;
640 -> 642 ;
643 [label="1stFlrSF <= -0.538\nmse = 902500.0\nsamples = 2\nvalue = 133950.0", fillcolor="#e5813923"] ;
639 -> 643 ;
644 [label="mse = 0.0\nsamples = 1\nvalue = 133000.0", fillcolor="#e5813923"] ;
643 -> 644 ;
645 [label="mse = 0.0\nsamples = 1\nvalue = 134900.0", fillcolor="#e5813923"] ;
643 -> 645 ;
646 [label="mse = 0.0\nsamples = 1\nvalue = 144000.0", fillcolor="#e5813927"] ;
638 -> 646 ;
647 [label="YearBuilt <= 0.043\nmse = 250000.0\nsamples = 2\nvalue = 130500.0", fillcolor="#e5813922"] ;
637 -> 647 ;
648 [label="mse = 0.0\nsamples = 1\nvalue = 130000.0", fillcolor="#e5813922"] ;
647 -> 648 ;
649 [label="mse = 0.0\nsamples = 1\nvalue = 131000.0", fillcolor="#e5813922"] ;
647 -> 649 ;
650 [label="YearRemodAdd <= -0.176\nmse = 17033244.444\nsamples = 9\nvalue = 141106.667", fillcolor="#e5813926"] ;
636 -> 650 ;
651 [label="YearRemodAdd <= -0.392\nmse = 5222800.0\nsamples = 4\nvalue = 137740.0", fillcolor="#e5813924"] ;
650 -> 651 ;
652 [label="GrLivArea <= -0.776\nmse = 230400.0\nsamples = 2\nvalue = 135480.0", fillcolor="#e5813924"] ;
651 -> 652 ;
653 [label="mse = 0.0\nsamples = 1\nvalue = 135960.0", fillcolor="#e5813924"] ;
652 -> 653 ;
654 [label="mse = 0.0\nsamples = 1\nvalue = 135000.0", fillcolor="#e5813923"] ;
652 -> 654 ;
655 [label="mse = 0.0\nsamples = 2\nvalue = 140000.0", fillcolor="#e5813925"] ;
651 -> 655 ;
656 [label="YearRemodAdd <= 0.068\nmse = 10160000.0\nsamples = 5\nvalue = 143800.0", fillcolor="#e5813927"] ;
650 -> 656 ;
657 [label="1stFlrSF <= -0.381\nmse = 8666666.667\nsamples = 3\nvalue = 142000.0", fillcolor="#e5813926"] ;
656 -> 657 ;
658 [label="mse = 0.0\nsamples = 1\nvalue = 143000.0", fillcolor="#e5813926"] ;
657 -> 658 ;
659 [label="mse = 12250000.0\nsamples = 2\nvalue = 141500.0", fillcolor="#e5813926"] ;
657 -> 659 ;
660 [label="TotRmsAbvGrd <= -0.25\nmse = 250000.0\nsamples = 2\nvalue = 146500.0", fillcolor="#e5813928"] ;
656 -> 660 ;
661 [label="mse = 0.0\nsamples = 1\nvalue = 147000.0", fillcolor="#e5813928"] ;
660 -> 661 ;
662 [label="mse = 0.0\nsamples = 1\nvalue = 146000.0", fillcolor="#e5813927"] ;
660 -> 662 ;
663 [label="YearRemodAdd <= 0.041\nmse = 21555555.556\nsamples = 3\nvalue = 149666.667", fillcolor="#e5813929"] ;
635 -> 663 ;
664 [label="mse = 0.0\nsamples = 1\nvalue = 156000.0", fillcolor="#e581392b"] ;
663 -> 664 ;
665 [label="TotalBsmtSF <= -0.563\nmse = 2250000.0\nsamples = 2\nvalue = 146500.0", fillcolor="#e5813928"] ;
663 -> 665 ;
666 [label="mse = 0.0\nsamples = 1\nvalue = 145000.0", fillcolor="#e5813927"] ;
665 -> 666 ;
667 [label="mse = 0.0\nsamples = 1\nvalue = 148000.0", fillcolor="#e5813928"] ;
665 -> 667 ;
668 [label="YearRemodAdd <= 0.365\nmse = 123546716.366\nsamples = 32\nvalue = 147160.406", fillcolor="#e5813928"] ;
602 -> 668 ;
669 [label="1stFlrSF <= -0.936\nmse = 96081822.222\nsamples = 30\nvalue = 145696.667", fillcolor="#e5813927"] ;
668 -> 669 ;
670 [label="mse = 0.0\nsamples = 1\nvalue = 124000.0", fillcolor="#e5813920"] ;
669 -> 670 ;
671 [label="YearBuilt <= -0.054\nmse = 82602645.66\nsamples = 29\nvalue = 146444.828", fillcolor="#e5813927"] ;
669 -> 671 ;
672 [label="GrLivArea <= -0.723\nmse = 183074285.714\nsamples = 7\nvalue = 152600.0", fillcolor="#e581392a"] ;
671 -> 672 ;
673 [label="mse = 0.0\nsamples = 1\nvalue = 180000.0", fillcolor="#e5813933"] ;
672 -> 673 ;
674 [label="SaleCondition_Normal <= 0.5\nmse = 67605555.556\nsamples = 6\nvalue = 148033.333", fillcolor="#e5813928"] ;
672 -> 674 ;
675 [label="mse = 0.0\nsamples = 2\nvalue = 137500.0", fillcolor="#e5813924"] ;
674 -> 675 ;
676 [label="TotalBsmtSF <= -0.409\nmse = 18195000.0\nsamples = 4\nvalue = 153300.0", fillcolor="#e581392a"] ;
674 -> 676 ;
677 [label="1stFlrSF <= -0.314\nmse = 5062500.0\nsamples = 2\nvalue = 157250.0", fillcolor="#e581392b"] ;
676 -> 677 ;
678 [label="mse = 0.0\nsamples = 1\nvalue = 155000.0", fillcolor="#e581392b"] ;
677 -> 678 ;
679 [label="mse = 0.0\nsamples = 1\nvalue = 159500.0", fillcolor="#e581392c"] ;
677 -> 679 ;
680 [label="YearBuilt <= -0.207\nmse = 122500.0\nsamples = 2\nvalue = 149350.0", fillcolor="#e5813929"] ;
676 -> 680 ;
681 [label="mse = 0.0\nsamples = 1\nvalue = 149700.0", fillcolor="#e5813929"] ;
680 -> 681 ;
682 [label="mse = 0.0\nsamples = 1\nvalue = 149000.0", fillcolor="#e5813928"] ;
680 -> 682 ;
683 [label="BsmtExposure_Mn <= 0.5\nmse = 34744132.231\nsamples = 22\nvalue = 144486.364", fillcolor="#e5813927"] ;
671 -> 683 ;
684 [label="TotRmsAbvGrd <= -0.75\nmse = 29899829.932\nsamples = 21\nvalue = 143942.857", fillcolor="#e5813927"] ;
683 -> 684 ;
685 [label="YearRemodAdd <= 0.257\nmse = 30419600.0\nsamples = 10\nvalue = 141380.0", fillcolor="#e5813926"] ;
684 -> 685 ;
686 [label="TotRmsAbvGrd <= -1.25\nmse = 9312500.0\nsamples = 4\nvalue = 135750.0", fillcolor="#e5813924"] ;
685 -> 686 ;
687 [label="mse = 6250000.0\nsamples = 2\nvalue = 134000.0", fillcolor="#e5813923"] ;
686 -> 687 ;
688 [label="ExterQual_Gd <= 0.5\nmse = 6250000.0\nsamples = 2\nvalue = 137500.0", fillcolor="#e5813924"] ;
686 -> 688 ;
689 [label="mse = 0.0\nsamples = 1\nvalue = 135000.0", fillcolor="#e5813923"] ;
688 -> 689 ;
690 [label="mse = 0.0\nsamples = 1\nvalue = 140000.0", fillcolor="#e5813925"] ;
688 -> 690 ;
691 [label="BsmtExposure_Gd <= 0.5\nmse = 9272222.222\nsamples = 6\nvalue = 145133.333", fillcolor="#e5813927"] ;
685 -> 691 ;
692 [label="YearBuilt <= 0.663\nmse = 8116875.0\nsamples = 4\nvalue = 146325.0", fillcolor="#e5813927"] ;
691 -> 692 ;
693 [label="mse = 0.0\nsamples = 1\nvalue = 144000.0", fillcolor="#e5813927"] ;
692 -> 693 ;
694 [label="mse = 8420000.0\nsamples = 3\nvalue = 147100.0", fillcolor="#e5813928"] ;
692 -> 694 ;
695 [label="SaleType_WD <= 0.5\nmse = 3062500.0\nsamples = 2\nvalue = 142750.0", fillcolor="#e5813926"] ;
691 -> 695 ;
696 [label="mse = 0.0\nsamples = 1\nvalue = 144500.0", fillcolor="#e5813927"] ;
695 -> 696 ;
697 [label="mse = 0.0\nsamples = 1\nvalue = 141000.0", fillcolor="#e5813926"] ;
695 -> 697 ;
698 [label="GrLivArea <= -0.817\nmse = 18027892.562\nsamples = 11\nvalue = 146272.727", fillcolor="#e5813927"] ;
684 -> 698 ;
699 [label="mse = 0.0\nsamples = 1\nvalue = 156000.0", fillcolor="#e581392b"] ;
698 -> 699 ;
700 [label="TotalBsmtSF <= -0.925\nmse = 9422500.0\nsamples = 10\nvalue = 145300.0", fillcolor="#e5813927"] ;
698 -> 700 ;
701 [label="mse = 0.0\nsamples = 1\nvalue = 151000.0", fillcolor="#e5813929"] ;
700 -> 701 ;
702 [label="SaleType_WD <= 0.5\nmse = 6458333.333\nsamples = 9\nvalue = 144666.667", fillcolor="#e5813927"] ;
700 -> 702 ;
703 [label="mse = 0.0\nsamples = 1\nvalue = 140000.0", fillcolor="#e5813925"] ;
702 -> 703 ;
704 [label="TotalBsmtSF <= -0.085\nmse = 4203125.0\nsamples = 8\nvalue = 145250.0", fillcolor="#e5813927"] ;
702 -> 704 ;
705 [label="1stFlrSF <= 0.18\nmse = 2400000.0\nsamples = 5\nvalue = 146500.0", fillcolor="#e5813928"] ;
704 -> 705 ;
706 [label="YearBuilt <= 0.554\nmse = 187500.0\nsamples = 4\nvalue = 147250.0", fillcolor="#e5813928"] ;
705 -> 706 ;
707 [label="mse = 0.0\nsamples = 3\nvalue = 147000.0", fillcolor="#e5813928"] ;
706 -> 707 ;
708 [label="mse = 0.0\nsamples = 1\nvalue = 148000.0", fillcolor="#e5813928"] ;
706 -> 708 ;
709 [label="mse = 0.0\nsamples = 1\nvalue = 143500.0", fillcolor="#e5813926"] ;
705 -> 709 ;
710 [label="1stFlrSF <= -0.187\nmse = 263888.889\nsamples = 3\nvalue = 143166.667", fillcolor="#e5813926"] ;
704 -> 710 ;
711 [label="GrLivArea <= -0.764\nmse = 62500.0\nsamples = 2\nvalue = 143500.0", fillcolor="#e5813926"] ;
710 -> 711 ;
712 [label="mse = 0.0\nsamples = 1\nvalue = 143750.0", fillcolor="#e5813927"] ;
711 -> 712 ;
713 [label="mse = 0.0\nsamples = 1\nvalue = 143250.0", fillcolor="#e5813926"] ;
711 -> 713 ;
714 [label="mse = 0.0\nsamples = 1\nvalue = 142500.0", fillcolor="#e5813926"] ;
710 -> 714 ;
715 [label="mse = 0.0\nsamples = 1\nvalue = 155900.0", fillcolor="#e581392b"] ;
683 -> 715 ;
716 [label="mse = 21312072.25\nsamples = 2\nvalue = 169116.5", fillcolor="#e5813930"] ;
668 -> 716 ;
717 [label="YearBuilt <= -0.315\nmse = 504875149.154\nsamples = 188\nvalue = 146883.5", fillcolor="#e5813928"] ;
3 -> 717 ;
718 [label="YearBuilt <= -0.522\nmse = 382140219.44\nsamples = 50\nvalue = 131856.6", fillcolor="#e5813922"] ;
717 -> 718 ;
719 [label="YearRemodAdd <= 0.122\nmse = 111971768.595\nsamples = 11\nvalue = 110816.364", fillcolor="#e581391b"] ;
718 -> 719 ;
720 [label="BsmtExposure_No <= 0.5\nmse = 49855636.0\nsamples = 10\nvalue = 113398.0", fillcolor="#e581391c"] ;
719 -> 720 ;
721 [label="YearBuilt <= -1.217\nmse = 14062500.0\nsamples = 2\nvalue = 103750.0", fillcolor="#e5813918"] ;
720 -> 721 ;
722 [label="mse = 0.0\nsamples = 1\nvalue = 107500.0", fillcolor="#e581391a"] ;
721 -> 722 ;
723 [label="mse = 0.0\nsamples = 1\nvalue = 100000.0", fillcolor="#e5813917"] ;
721 -> 723 ;
724 [label="YearRemodAdd <= -0.946\nmse = 29715200.0\nsamples = 8\nvalue = 115810.0", fillcolor="#e581391d"] ;
720 -> 724 ;
725 [label="TotRmsAbvGrd <= 0.25\nmse = 10409600.0\nsamples = 5\nvalue = 119520.0", fillcolor="#e581391e"] ;
724 -> 725 ;
726 [label="TotalBsmtSF <= 0.037\nmse = 3627500.0\nsamples = 4\nvalue = 118150.0", fillcolor="#e581391d"] ;
725 -> 726 ;
727 [label="mse = 0.0\nsamples = 1\nvalue = 115000.0", fillcolor="#e581391c"] ;
726 -> 727 ;
728 [label="GrLivArea <= -0.644\nmse = 426666.667\nsamples = 3\nvalue = 119200.0", fillcolor="#e581391e"] ;
726 -> 728 ;
729 [label="mse = 0.0\nsamples = 1\nvalue = 118400.0", fillcolor="#e581391e"] ;
728 -> 729 ;
730 [label="OverallQual <= -0.25\nmse = 160000.0\nsamples = 2\nvalue = 119600.0", fillcolor="#e581391e"] ;
728 -> 730 ;
731 [label="mse = 0.0\nsamples = 1\nvalue = 120000.0", fillcolor="#e581391e"] ;
730 -> 731 ;
732 [label="mse = 0.0\nsamples = 1\nvalue = 119200.0", fillcolor="#e581391e"] ;
730 -> 732 ;
733 [label="mse = 0.0\nsamples = 1\nvalue = 125000.0", fillcolor="#e5813920"] ;
725 -> 733 ;
734 [label="GarageCars <= -0.5\nmse = 717422.222\nsamples = 3\nvalue = 109626.667", fillcolor="#e581391a"] ;
724 -> 734 ;
735 [label="mse = 0.0\nsamples = 1\nvalue = 108480.0", fillcolor="#e581391a"] ;
734 -> 735 ;
736 [label="YearBuilt <= -1.141\nmse = 90000.0\nsamples = 2\nvalue = 110200.0", fillcolor="#e581391b"] ;
734 -> 736 ;
737 [label="mse = 0.0\nsamples = 1\nvalue = 109900.0", fillcolor="#e581391b"] ;
736 -> 737 ;
738 [label="mse = 0.0\nsamples = 1\nvalue = 110500.0", fillcolor="#e581391b"] ;
736 -> 738 ;
739 [label="mse = 0.0\nsamples = 1\nvalue = 85000.0", fillcolor="#e5813912"] ;
719 -> 739 ;
740 [label="SaleType_WD <= 0.5\nmse = 298262451.512\nsamples = 39\nvalue = 137791.026", fillcolor="#e5813924"] ;
718 -> 740 ;
741 [label="TotalBsmtSF <= 0.455\nmse = 1184666666.667\nsamples = 3\nvalue = 108000.0", fillcolor="#e581391a"] ;
740 -> 741 ;
742 [label="1stFlrSF <= 0.323\nmse = 49000000.0\nsamples = 2\nvalue = 132000.0", fillcolor="#e5813922"] ;
741 -> 742 ;
743 [label="mse = 0.0\nsamples = 1\nvalue = 125000.0", fillcolor="#e5813920"] ;
742 -> 743 ;
744 [label="mse = 0.0\nsamples = 1\nvalue = 139000.0", fillcolor="#e5813925"] ;
742 -> 744 ;
745 [label="mse = 0.0\nsamples = 1\nvalue = 60000.0", fillcolor="#e5813909"] ;
741 -> 745 ;
746 [label="1stFlrSF <= -0.028\nmse = 144273435.571\nsamples = 36\nvalue = 140273.611", fillcolor="#e5813925"] ;
740 -> 746 ;
747 [label="GrLivArea <= -0.63\nmse = 114180555.556\nsamples = 12\nvalue = 132733.333", fillcolor="#e5813923"] ;
746 -> 747 ;
748 [label="GarageCars <= -0.5\nmse = 37267500.0\nsamples = 8\nvalue = 138600.0", fillcolor="#e5813925"] ;
747 -> 748 ;
749 [label="GrLivArea <= -0.635\nmse = 12402222.222\nsamples = 6\nvalue = 135633.333", fillcolor="#e5813924"] ;
748 -> 749 ;
750 [label="TotalBsmtSF <= 0.114\nmse = 9042500.0\nsamples = 4\nvalue = 133850.0", fillcolor="#e5813923"] ;
749 -> 750 ;
751 [label="TotRmsAbvGrd <= -0.5\nmse = 1166666.667\nsamples = 3\nvalue = 135500.0", fillcolor="#e5813924"] ;
750 -> 751 ;
752 [label="mse = 0.0\nsamples = 1\nvalue = 137000.0", fillcolor="#e5813924"] ;
751 -> 752 ;
753 [label="TotalBsmtSF <= 0.073\nmse = 62500.0\nsamples = 2\nvalue = 134750.0", fillcolor="#e5813923"] ;
751 -> 753 ;
754 [label="mse = 0.0\nsamples = 1\nvalue = 134500.0", fillcolor="#e5813923"] ;
753 -> 754 ;
755 [label="mse = 0.0\nsamples = 1\nvalue = 135000.0", fillcolor="#e5813923"] ;
753 -> 755 ;
756 [label="mse = 0.0\nsamples = 1\nvalue = 128900.0", fillcolor="#e5813921"] ;
750 -> 756 ;
757 [label="YearBuilt <= -0.37\nmse = 40000.0\nsamples = 2\nvalue = 139200.0", fillcolor="#e5813925"] ;
749 -> 757 ;
758 [label="mse = 0.0\nsamples = 1\nvalue = 139400.0", fillcolor="#e5813925"] ;
757 -> 758 ;
759 [label="mse = 0.0\nsamples = 1\nvalue = 139000.0", fillcolor="#e5813925"] ;
757 -> 759 ;
760 [label="1stFlrSF <= -0.064\nmse = 6250000.0\nsamples = 2\nvalue = 147500.0", fillcolor="#e5813928"] ;
748 -> 760 ;
761 [label="mse = 0.0\nsamples = 1\nvalue = 150000.0", fillcolor="#e5813929"] ;
760 -> 761 ;
762 [label="mse = 0.0\nsamples = 1\nvalue = 145000.0", fillcolor="#e5813927"] ;
760 -> 762 ;
763 [label="SaleCondition_Normal <= 0.5\nmse = 61500000.0\nsamples = 4\nvalue = 121000.0", fillcolor="#e581391e"] ;
747 -> 763 ;
764 [label="YearBuilt <= -0.467\nmse = 25000000.0\nsamples = 2\nvalue = 114000.0", fillcolor="#e581391c"] ;
763 -> 764 ;
765 [label="mse = 0.0\nsamples = 1\nvalue = 119000.0", fillcolor="#e581391e"] ;
764 -> 765 ;
766 [label="mse = 0.0\nsamples = 1\nvalue = 109000.0", fillcolor="#e581391a"] ;
764 -> 766 ;
767 [label="mse = 0.0\nsamples = 2\nvalue = 128000.0", fillcolor="#e5813921"] ;
763 -> 767 ;
768 [label="YearBuilt <= -0.424\nmse = 116678033.854\nsamples = 24\nvalue = 144043.75", fillcolor="#e5813927"] ;
746 -> 768 ;
769 [label="GrLivArea <= -0.512\nmse = 56504947.917\nsamples = 6\nvalue = 154087.5", fillcolor="#e581392a"] ;
768 -> 769 ;
770 [label="GarageCars <= -0.5\nmse = 28170138.889\nsamples = 3\nvalue = 148041.667", fillcolor="#e5813928"] ;
769 -> 770 ;
771 [label="ExterQual_Gd <= 0.5\nmse = 5941406.25\nsamples = 2\nvalue = 144562.5", fillcolor="#e5813927"] ;
770 -> 771 ;
772 [label="mse = 0.0\nsamples = 1\nvalue = 142125.0", fillcolor="#e5813926"] ;
771 -> 772 ;
773 [label="mse = 0.0\nsamples = 1\nvalue = 147000.0", fillcolor="#e5813928"] ;
771 -> 773 ;
774 [label="mse = 0.0\nsamples = 1\nvalue = 155000.0", fillcolor="#e581392b"] ;
770 -> 774 ;
775 [label="1stFlrSF <= 0.515\nmse = 11735555.556\nsamples = 3\nvalue = 160133.333", fillcolor="#e581392c"] ;
769 -> 775 ;
776 [label="OverallQual <= -0.25\nmse = 562500.0\nsamples = 2\nvalue = 157750.0", fillcolor="#e581392c"] ;
775 -> 776 ;
777 [label="mse = 0.0\nsamples = 1\nvalue = 157000.0", fillcolor="#e581392b"] ;
776 -> 777 ;
778 [label="mse = 0.0\nsamples = 1\nvalue = 158500.0", fillcolor="#e581392c"] ;
776 -> 778 ;
779 [label="mse = 0.0\nsamples = 1\nvalue = 164900.0", fillcolor="#e581392e"] ;
775 -> 779 ;
780 [label="TotalBsmtSF <= 0.426\nmse = 91901545.139\nsamples = 18\nvalue = 140695.833", fillcolor="#e5813925"] ;
768 -> 780 ;
781 [label="YearRemodAdd <= 0.27\nmse = 32995030.992\nsamples = 11\nvalue = 135865.909", fillcolor="#e5813924"] ;
780 -> 781 ;
782 [label="BsmtExposure_No <= 0.5\nmse = 25964025.0\nsamples = 10\nvalue = 136835.0", fillcolor="#e5813924"] ;
781 -> 782 ;
783 [label="1stFlrSF <= 0.316\nmse = 250000.0\nsamples = 2\nvalue = 129500.0", fillcolor="#e5813921"] ;
782 -> 783 ;
784 [label="mse = 0.0\nsamples = 1\nvalue = 129000.0", fillcolor="#e5813921"] ;
783 -> 784 ;
785 [label="mse = 0.0\nsamples = 1\nvalue = 130000.0", fillcolor="#e5813922"] ;
783 -> 785 ;
786 [label="YearBuilt <= -0.402\nmse = 15579335.938\nsamples = 8\nvalue = 138668.75", fillcolor="#e5813925"] ;
782 -> 786 ;
787 [label="mse = 0.0\nsamples = 1\nvalue = 144900.0", fillcolor="#e5813927"] ;
786 -> 787 ;
788 [label="TotalBsmtSF <= 0.11\nmse = 11465612.245\nsamples = 7\nvalue = 137778.571", fillcolor="#e5813924"] ;
786 -> 788 ;
789 [label="mse = 0.0\nsamples = 1\nvalue = 144000.0", fillcolor="#e5813927"] ;
788 -> 789 ;
790 [label="GrLivArea <= -0.389\nmse = 5850347.222\nsamples = 6\nvalue = 136741.667", fillcolor="#e5813924"] ;
788 -> 790 ;
791 [label="YearBuilt <= -0.38\nmse = 5687500.0\nsamples = 4\nvalue = 137750.0", fillcolor="#e5813924"] ;
790 -> 791 ;
792 [label="mse = 0.0\nsamples = 1\nvalue = 135000.0", fillcolor="#e5813923"] ;
791 -> 792 ;
793 [label="TotalBsmtSF <= 0.188\nmse = 4222222.222\nsamples = 3\nvalue = 138666.667", fillcolor="#e5813925"] ;
791 -> 793 ;
794 [label="mse = 0.0\nsamples = 1\nvalue = 136000.0", fillcolor="#e5813924"] ;
793 -> 794 ;
795 [label="1stFlrSF <= 0.112\nmse = 1000000.0\nsamples = 2\nvalue = 140000.0", fillcolor="#e5813925"] ;
793 -> 795 ;
796 [label="mse = 0.0\nsamples = 1\nvalue = 141000.0", fillcolor="#e5813926"] ;
795 -> 796 ;
797 [label="mse = 0.0\nsamples = 1\nvalue = 139000.0", fillcolor="#e5813925"] ;
795 -> 797 ;
798 [label="1stFlrSF <= 0.286\nmse = 75625.0\nsamples = 2\nvalue = 134725.0", fillcolor="#e5813923"] ;
790 -> 798 ;
799 [label="mse = 0.0\nsamples = 1\nvalue = 135000.0", fillcolor="#e5813923"] ;
798 -> 799 ;
800 [label="mse = 0.0\nsamples = 1\nvalue = 134450.0", fillcolor="#e5813923"] ;
798 -> 800 ;
801 [label="mse = 0.0\nsamples = 1\nvalue = 126175.0", fillcolor="#e5813920"] ;
781 -> 801 ;
802 [label="YearRemodAdd <= -1.041\nmse = 90204081.633\nsamples = 7\nvalue = 148285.714", fillcolor="#e5813928"] ;
780 -> 802 ;
803 [label="OverallQual <= -0.25\nmse = 16000000.0\nsamples = 2\nvalue = 136000.0", fillcolor="#e5813924"] ;
802 -> 803 ;
804 [label="mse = 0.0\nsamples = 1\nvalue = 132000.0", fillcolor="#e5813922"] ;
803 -> 804 ;
805 [label="mse = 0.0\nsamples = 1\nvalue = 140000.0", fillcolor="#e5813925"] ;
803 -> 805 ;
806 [label="YearBuilt <= -0.337\nmse = 35360000.0\nsamples = 5\nvalue = 153200.0", fillcolor="#e581392a"] ;
802 -> 806 ;
807 [label="1stFlrSF <= 0.429\nmse = 10888888.889\nsamples = 3\nvalue = 149333.333", fillcolor="#e5813929"] ;
806 -> 807 ;
808 [label="GarageCars <= -0.5\nmse = 2250000.0\nsamples = 2\nvalue = 151500.0", fillcolor="#e5813929"] ;
807 -> 808 ;
809 [label="mse = 0.0\nsamples = 1\nvalue = 150000.0", fillcolor="#e5813929"] ;
808 -> 809 ;
810 [label="mse = 0.0\nsamples = 1\nvalue = 153000.0", fillcolor="#e581392a"] ;
808 -> 810 ;
811 [label="mse = 0.0\nsamples = 1\nvalue = 145000.0", fillcolor="#e5813927"] ;
807 -> 811 ;
812 [label="YearRemodAdd <= -0.432\nmse = 16000000.0\nsamples = 2\nvalue = 159000.0", fillcolor="#e581392c"] ;
806 -> 812 ;
813 [label="mse = 0.0\nsamples = 1\nvalue = 163000.0", fillcolor="#e581392d"] ;
812 -> 813 ;
814 [label="mse = 0.0\nsamples = 1\nvalue = 155000.0", fillcolor="#e581392b"] ;
812 -> 814 ;
815 [label="GrLivArea <= -0.484\nmse = 437887038.101\nsamples = 138\nvalue = 152328.029", fillcolor="#e581392a"] ;
717 -> 815 ;
816 [label="GarageCars <= -0.5\nmse = 261355273.438\nsamples = 72\nvalue = 142543.75", fillcolor="#e5813926"] ;
815 -> 816 ;
817 [label="GarageCars <= -1.5\nmse = 239989322.235\nsamples = 29\nvalue = 135241.379", fillcolor="#e5813924"] ;
816 -> 817 ;
818 [label="1stFlrSF <= 0.084\nmse = 666166666.667\nsamples = 3\nvalue = 118500.0", fillcolor="#e581391e"] ;
817 -> 818 ;
819 [label="YearBuilt <= 0.424\nmse = 132250000.0\nsamples = 2\nvalue = 135500.0", fillcolor="#e5813924"] ;
818 -> 819 ;
820 [label="mse = 0.0\nsamples = 1\nvalue = 124000.0", fillcolor="#e5813920"] ;
819 -> 820 ;
821 [label="mse = 0.0\nsamples = 1\nvalue = 147000.0", fillcolor="#e5813928"] ;
819 -> 821 ;
822 [label="mse = 0.0\nsamples = 1\nvalue = 84500.0", fillcolor="#e5813912"] ;
818 -> 822 ;
823 [label="TotalBsmtSF <= 0.131\nmse = 154744275.148\nsamples = 26\nvalue = 137173.077", fillcolor="#e5813924"] ;
817 -> 823 ;
824 [label="OverallQual <= -0.75\nmse = 97668520.71\nsamples = 13\nvalue = 130438.462", fillcolor="#e5813922"] ;
823 -> 824 ;
825 [label="GrLivArea <= -0.651\nmse = 33062500.0\nsamples = 2\nvalue = 112750.0", fillcolor="#e581391c"] ;
824 -> 825 ;
826 [label="mse = 0.0\nsamples = 1\nvalue = 118500.0", fillcolor="#e581391e"] ;
825 -> 826 ;
827 [label="mse = 0.0\nsamples = 1\nvalue = 107000.0", fillcolor="#e581391a"] ;
825 -> 827 ;
828 [label="TotalBsmtSF <= 0.107\nmse = 42184297.521\nsamples = 11\nvalue = 133654.545", fillcolor="#e5813923"] ;
824 -> 828 ;
829 [label="TotalBsmtSF <= 0.098\nmse = 15919183.673\nsamples = 7\nvalue = 129671.429", fillcolor="#e5813922"] ;
828 -> 829 ;
830 [label="YearRemodAdd <= 0.324\nmse = 8698400.0\nsamples = 5\nvalue = 131640.0", fillcolor="#e5813922"] ;
829 -> 830 ;
831 [label="YearBuilt <= -0.196\nmse = 4145000.0\nsamples = 4\nvalue = 132800.0", fillcolor="#e5813923"] ;
830 -> 831 ;
832 [label="GrLivArea <= -0.582\nmse = 686666.667\nsamples = 3\nvalue = 133900.0", fillcolor="#e5813923"] ;
831 -> 832 ;
833 [label="YearBuilt <= -0.261\nmse = 122500.0\nsamples = 2\nvalue = 133350.0", fillcolor="#e5813923"] ;
832 -> 833 ;
834 [label="mse = 0.0\nsamples = 1\nvalue = 133700.0", fillcolor="#e5813923"] ;
833 -> 834 ;
835 [label="mse = 0.0\nsamples = 1\nvalue = 133000.0", fillcolor="#e5813923"] ;
833 -> 835 ;
836 [label="mse = 0.0\nsamples = 1\nvalue = 135000.0", fillcolor="#e5813923"] ;
832 -> 836 ;
837 [label="mse = 0.0\nsamples = 1\nvalue = 129500.0", fillcolor="#e5813921"] ;
831 -> 837 ;
838 [label="mse = 0.0\nsamples = 1\nvalue = 127000.0", fillcolor="#e5813921"] ;
830 -> 838 ;
839 [label="GrLivArea <= -0.589\nmse = 62500.0\nsamples = 2\nvalue = 124750.0", fillcolor="#e5813920"] ;
829 -> 839 ;
840 [label="mse = 0.0\nsamples = 1\nvalue = 124500.0", fillcolor="#e5813920"] ;
839 -> 840 ;
841 [label="mse = 0.0\nsamples = 1\nvalue = 125000.0", fillcolor="#e5813920"] ;
839 -> 841 ;
842 [label="1stFlrSF <= -0.068\nmse = 11796875.0\nsamples = 4\nvalue = 140625.0", fillcolor="#e5813925"] ;
828 -> 842 ;
843 [label="YearBuilt <= -0.185\nmse = 1000000.0\nsamples = 2\nvalue = 137500.0", fillcolor="#e5813924"] ;
842 -> 843 ;
844 [label="mse = 0.0\nsamples = 1\nvalue = 136500.0", fillcolor="#e5813924"] ;
843 -> 844 ;
845 [label="mse = 0.0\nsamples = 1\nvalue = 138500.0", fillcolor="#e5813925"] ;
843 -> 845 ;
846 [label="TotRmsAbvGrd <= -0.25\nmse = 3062500.0\nsamples = 2\nvalue = 143750.0", fillcolor="#e5813927"] ;
842 -> 846 ;
847 [label="mse = 0.0\nsamples = 1\nvalue = 145500.0", fillcolor="#e5813927"] ;
846 -> 847 ;
848 [label="mse = 0.0\nsamples = 1\nvalue = 142000.0", fillcolor="#e5813926"] ;
846 -> 848 ;
849 [label="YearRemodAdd <= -0.581\nmse = 121109940.828\nsamples = 13\nvalue = 143907.692", fillcolor="#e5813927"] ;
823 -> 849 ;
850 [label="SaleType_WD <= 0.5\nmse = 34016093.75\nsamples = 8\nvalue = 137412.5", fillcolor="#e5813924"] ;
849 -> 850 ;
851 [label="mse = 0.0\nsamples = 1\nvalue = 124000.0", fillcolor="#e5813920"] ;
850 -> 851 ;
852 [label="GrLivArea <= -0.491\nmse = 9504897.959\nsamples = 7\nvalue = 139328.571", fillcolor="#e5813925"] ;
850 -> 852 ;
853 [label="YearBuilt <= -0.261\nmse = 2358400.0\nsamples = 5\nvalue = 140360.0", fillcolor="#e5813925"] ;
852 -> 853 ;
854 [label="OverallQual <= -0.75\nmse = 1000000.0\nsamples = 2\nvalue = 142000.0", fillcolor="#e5813926"] ;
853 -> 854 ;
855 [label="mse = 0.0\nsamples = 1\nvalue = 141000.0", fillcolor="#e5813926"] ;
854 -> 855 ;
856 [label="mse = 0.0\nsamples = 1\nvalue = 143000.0", fillcolor="#e5813926"] ;
854 -> 856 ;
857 [label="OverallQual <= -0.25\nmse = 275555.556\nsamples = 3\nvalue = 139266.667", fillcolor="#e5813925"] ;
853 -> 857 ;
858 [label="TotalBsmtSF <= 0.204\nmse = 10000.0\nsamples = 2\nvalue = 138900.0", fillcolor="#e5813925"] ;
857 -> 858 ;
859 [label="mse = 0.0\nsamples = 1\nvalue = 139000.0", fillcolor="#e5813925"] ;
858 -> 859 ;
860 [label="mse = 0.0\nsamples = 1\nvalue = 138800.0", fillcolor="#e5813925"] ;
858 -> 860 ;
861 [label="mse = 0.0\nsamples = 1\nvalue = 140000.0", fillcolor="#e5813925"] ;
857 -> 861 ;
862 [label="1stFlrSF <= 0.122\nmse = 18062500.0\nsamples = 2\nvalue = 136750.0", fillcolor="#e5813924"] ;
852 -> 862 ;
863 [label="mse = 0.0\nsamples = 1\nvalue = 132500.0", fillcolor="#e5813923"] ;
862 -> 863 ;
864 [label="mse = 0.0\nsamples = 1\nvalue = 141000.0", fillcolor="#e5813926"] ;
862 -> 864 ;
865 [label="GrLivArea <= -0.538\nmse = 84960000.0\nsamples = 5\nvalue = 154300.0", fillcolor="#e581392a"] ;
849 -> 865 ;
866 [label="TotalBsmtSF <= 0.175\nmse = 19046875.0\nsamples = 4\nvalue = 150125.0", fillcolor="#e5813929"] ;
865 -> 866 ;
867 [label="YearRemodAdd <= 0.216\nmse = 62500.0\nsamples = 2\nvalue = 154250.0", fillcolor="#e581392a"] ;
866 -> 867 ;
868 [label="mse = 0.0\nsamples = 1\nvalue = 154000.0", fillcolor="#e581392a"] ;
867 -> 868 ;
869 [label="mse = 0.0\nsamples = 1\nvalue = 154500.0", fillcolor="#e581392a"] ;
867 -> 869 ;
870 [label="YearBuilt <= 0.272\nmse = 4000000.0\nsamples = 2\nvalue = 146000.0", fillcolor="#e5813927"] ;
866 -> 870 ;
871 [label="mse = 0.0\nsamples = 1\nvalue = 148000.0", fillcolor="#e5813928"] ;
870 -> 871 ;
872 [label="mse = 0.0\nsamples = 1\nvalue = 144000.0", fillcolor="#e5813927"] ;
870 -> 872 ;
873 [label="mse = 0.0\nsamples = 1\nvalue = 171000.0", fillcolor="#e5813930"] ;
865 -> 873 ;
874 [label="TotalBsmtSF <= 0.19\nmse = 215547560.844\nsamples = 43\nvalue = 147468.605", fillcolor="#e5813928"] ;
816 -> 874 ;
875 [label="TotalBsmtSF <= 0.072\nmse = 193073256.0\nsamples = 25\nvalue = 142488.0", fillcolor="#e5813926"] ;
874 -> 875 ;
876 [label="YearBuilt <= 0.011\nmse = 34707968.75\nsamples = 4\nvalue = 160212.5", fillcolor="#e581392c"] ;
875 -> 876 ;
877 [label="GrLivArea <= -0.61\nmse = 4567222.222\nsamples = 3\nvalue = 156983.333", fillcolor="#e581392b"] ;
876 -> 877 ;
878 [label="TotRmsAbvGrd <= -0.25\nmse = 250000.0\nsamples = 2\nvalue = 155500.0", fillcolor="#e581392b"] ;
877 -> 878 ;
879 [label="mse = 0.0\nsamples = 1\nvalue = 156000.0", fillcolor="#e581392b"] ;
878 -> 879 ;
880 [label="mse = 0.0\nsamples = 1\nvalue = 155000.0", fillcolor="#e581392b"] ;
878 -> 880 ;
881 [label="mse = 0.0\nsamples = 1\nvalue = 159950.0", fillcolor="#e581392c"] ;
877 -> 881 ;
882 [label="mse = 0.0\nsamples = 1\nvalue = 169900.0", fillcolor="#e5813930"] ;
876 -> 882 ;
883 [label="GrLivArea <= -0.552\nmse = 152000453.515\nsamples = 21\nvalue = 139111.905", fillcolor="#e5813925"] ;
875 -> 883 ;
884 [label="YearRemodAdd <= -0.27\nmse = 103407908.587\nsamples = 19\nvalue = 141334.211", fillcolor="#e5813926"] ;
883 -> 884 ;
885 [label="GrLivArea <= -0.607\nmse = 98541266.667\nsamples = 15\nvalue = 138730.0", fillcolor="#e5813925"] ;
884 -> 885 ;
886 [label="TotalBsmtSF <= 0.129\nmse = 73098940.972\nsamples = 12\nvalue = 136454.167", fillcolor="#e5813924"] ;
885 -> 886 ;
887 [label="OverallQual <= -0.25\nmse = 66765555.556\nsamples = 6\nvalue = 141866.667", fillcolor="#e5813926"] ;
886 -> 887 ;
888 [label="BsmtExposure_Mn <= 0.5\nmse = 640000.0\nsamples = 2\nvalue = 130700.0", fillcolor="#e5813922"] ;
887 -> 888 ;
889 [label="mse = 0.0\nsamples = 1\nvalue = 129900.0", fillcolor="#e5813922"] ;
888 -> 889 ;
890 [label="mse = 0.0\nsamples = 1\nvalue = 131500.0", fillcolor="#e5813922"] ;
888 -> 890 ;
891 [label="TotRmsAbvGrd <= -0.25\nmse = 6307500.0\nsamples = 4\nvalue = 147450.0", fillcolor="#e5813928"] ;
887 -> 891 ;
892 [label="1stFlrSF <= -0.055\nmse = 1960000.0\nsamples = 2\nvalue = 145400.0", fillcolor="#e5813927"] ;
891 -> 892 ;
893 [label="mse = 0.0\nsamples = 1\nvalue = 144000.0", fillcolor="#e5813927"] ;
892 -> 893 ;
894 [label="mse = 0.0\nsamples = 1\nvalue = 146800.0", fillcolor="#e5813928"] ;
892 -> 894 ;
895 [label="BsmtExposure_No <= 0.5\nmse = 2250000.0\nsamples = 2\nvalue = 149500.0", fillcolor="#e5813929"] ;
891 -> 895 ;
896 [label="mse = 0.0\nsamples = 1\nvalue = 148000.0", fillcolor="#e5813928"] ;
895 -> 896 ;
897 [label="mse = 0.0\nsamples = 1\nvalue = 151000.0", fillcolor="#e5813929"] ;
895 -> 897 ;
898 [label="SaleCondition_Normal <= 0.5\nmse = 20842013.889\nsamples = 6\nvalue = 131041.667", fillcolor="#e5813922"] ;
886 -> 898 ;
899 [label="mse = 0.0\nsamples = 1\nvalue = 140000.0", fillcolor="#e5813925"] ;
898 -> 899 ;
900 [label="TotalBsmtSF <= 0.145\nmse = 5750000.0\nsamples = 5\nvalue = 129250.0", fillcolor="#e5813921"] ;
898 -> 900 ;
901 [label="YearRemodAdd <= -0.851\nmse = 15625.0\nsamples = 2\nvalue = 132125.0", fillcolor="#e5813922"] ;
900 -> 901 ;
902 [label="mse = 0.0\nsamples = 1\nvalue = 132000.0", fillcolor="#e5813922"] ;
901 -> 902 ;
903 [label="mse = 0.0\nsamples = 1\nvalue = 132250.0", fillcolor="#e5813922"] ;
901 -> 903 ;
904 [label="YearBuilt <= -0.109\nmse = 388888.889\nsamples = 3\nvalue = 127333.333", fillcolor="#e5813921"] ;
900 -> 904 ;
905 [label="mse = 0.0\nsamples = 1\nvalue = 126500.0", fillcolor="#e5813920"] ;
904 -> 905 ;
906 [label="1stFlrSF <= -0.144\nmse = 62500.0\nsamples = 2\nvalue = 127750.0", fillcolor="#e5813921"] ;
904 -> 906 ;
907 [label="mse = 0.0\nsamples = 1\nvalue = 128000.0", fillcolor="#e5813921"] ;
906 -> 907 ;
908 [label="mse = 0.0\nsamples = 1\nvalue = 127500.0", fillcolor="#e5813921"] ;
906 -> 908 ;
909 [label="GrLivArea <= -0.598\nmse = 96722222.222\nsamples = 3\nvalue = 147833.333", fillcolor="#e5813928"] ;
885 -> 909 ;
910 [label="GrLivArea <= -0.603\nmse = 1562500.0\nsamples = 2\nvalue = 154750.0", fillcolor="#e581392a"] ;
909 -> 910 ;
911 [label="mse = 0.0\nsamples = 1\nvalue = 156000.0", fillcolor="#e581392b"] ;
910 -> 911 ;
912 [label="mse = 0.0\nsamples = 1\nvalue = 153500.0", fillcolor="#e581392a"] ;
910 -> 912 ;
913 [label="mse = 0.0\nsamples = 1\nvalue = 134000.0", fillcolor="#e5813923"] ;
909 -> 913 ;
914 [label="YearRemodAdd <= 0.216\nmse = 855000.0\nsamples = 4\nvalue = 151100.0", fillcolor="#e5813929"] ;
884 -> 914 ;
915 [label="mse = 0.0\nsamples = 2\nvalue = 152000.0", fillcolor="#e5813929"] ;
914 -> 915 ;
916 [label="TotRmsAbvGrd <= -0.25\nmse = 90000.0\nsamples = 2\nvalue = 150200.0", fillcolor="#e5813929"] ;
914 -> 916 ;
917 [label="mse = 0.0\nsamples = 1\nvalue = 150500.0", fillcolor="#e5813929"] ;
916 -> 917 ;
918 [label="mse = 0.0\nsamples = 1\nvalue = 149900.0", fillcolor="#e5813929"] ;
916 -> 918 ;
919 [label="SaleCondition_Normal <= 0.5\nmse = 121000000.0\nsamples = 2\nvalue = 118000.0", fillcolor="#e581391d"] ;
883 -> 919 ;
920 [label="mse = 0.0\nsamples = 1\nvalue = 107000.0", fillcolor="#e581391a"] ;
919 -> 920 ;
921 [label="mse = 0.0\nsamples = 1\nvalue = 129000.0", fillcolor="#e5813921"] ;
919 -> 921 ;
922 [label="GrLivArea <= -0.502\nmse = 164456612.654\nsamples = 18\nvalue = 154386.111", fillcolor="#e581392a"] ;
874 -> 922 ;
923 [label="1stFlrSF <= 0.076\nmse = 136633333.333\nsamples = 15\nvalue = 157500.0", fillcolor="#e581392b"] ;
922 -> 923 ;
924 [label="GrLivArea <= -0.534\nmse = 74922500.0\nsamples = 10\nvalue = 152050.0", fillcolor="#e5813929"] ;
923 -> 924 ;
925 [label="1stFlrSF <= 0.032\nmse = 50704081.633\nsamples = 7\nvalue = 155214.286", fillcolor="#e581392b"] ;
924 -> 925 ;
